{
    "layers" : 3,
    "scalarFuncsCompressFactor" : 1,
    "layer_0" : {
        "layer" : 0,
        "neurons" : 10,
        "weights" : 
        [
            [-0.136572, -0.000122605, -0.00675596, 0.115451, 0.376643, -9.23357e-05, 0.306242, 0.848053, 0.693774, -0.000141658],
            [-0.0587161, 0.716276, 0.243473, 0.478941, -0.00221016, -0.107759, -0.0265868, -0.0192176, -0.0359658, -0.0217586],
            [0.499863, -0.000740532, -0.0541485, -0.135913, -0.0872245, 0.0917111, 0.152789, -0.00079168, 0.578807, 0.605539],
            [-0.00767212, 0.156891, -0.00164584, -0.000177432, -0.0210289, 0.886937, 0.498066, 0.101742, 0.283188, -0.00369303],
            [0.91976, 0.587228, 0.837126, 0.581411, 0.470011, 0.260366, -0.000748046, 0.0421859, 1.22166, -2.58985e-05],
            [0.456274, 0.317195, 0.585864, 1.18255, 0.184522, 0.249673, 0.689391, 0.0111855, 0.725049, -0.0635094],
            [0.273663, -0.0267643, 0.938066, -0.0278845, -0.0582532, 0.754454, -2.14112e-05, 0.116087, 0.452628, 0.462816],
            [0.882077, 0.246537, 0.196825, 0.230623, -9.00738e-05, 0.0615098, 0.316528, 0.933967, 0.418059, -0.027615],
            [0.496675, -0.00949906, 0.468877, 0.0257167, 0.679481, -0.00169869, -0.0142467, -0.0355942, -0.00382304, -5.50612e-05],
            [0.445197, 0.681013, 0.807512, -0.00169708, -0.000756154, 0.135276, 0.671836, -0.0260383, 0.730372, 0.216389]
        ],
        "biases" : [0, 0, 0, 0, 0, 0, 0, 0, 0, 0]
    },
    "layer_1" : {
        "layer" : 1,
        "neurons" : 10,
        "weights" : 
        [
            [-0.789695, -0.342838, 0.287341, 0.139297, 0.229453, -0.044464, -0.302619, 0.731162, 0.301761, -0.107686],
            [0.0139403, 1.21431, 0.174034, 0.351347, 0.125494, -0.55359, -0.340452, -0.00689371, 0.061461, 0.264723],
            [0.000132921, -0.223281, -0.711059, -0.619787, -0.161885, 0.172479, 0.735563, -0.0171574, 0.0744663, 0.451671],
            [-0.00885654, 0.423074, 0.131191, -0.204441, -0.122987, 0.736743, 0.13665, 0.0108133, -0.106957, -0.635595],
            [0.588839, 0.426467, 0.305129, 0.339876, -0.0685712, -0.119133, -0.29068, -0.530527, 1.22617, -0.217654],
            [-0.203291, 0.184841, -0.0127552, 0.956665, 0.1552, -0.137975, 0.279973, 0.0412802, 0.0581014, -0.491959],
            [0.0424517, -0.396582, 0.049653, 0.279015, -0.710161, 0.499224, -0.385641, 0.00629577, 0.343632, 0.735623],
            [0.581373, 0.366654, -0.194459, -0.158066, -0.309952, -0.154595, 0.360596, 0.531619, -0.0579279, -0.195837],
            [0.416839, -0.502435, 0.0878975, -0.0668505, 0.719229, -0.0985258, -0.136045, -0.383471, -0.687273, 0.120468],
            [0.295872, 0.903235, 1.37405, -0.254209, -0.750766, 0.0175531, 0.434567, -0.260899, 0.352998, -0.154191]
        ],
        "biases" : [0, 0, 0, 0, 0, 0, 0, 0, 0, 0]
    },
    "layer_2" : {
        "layer" : 2,
        "neurons" : 10
    }
}