{
    "layers" : 3,
    "scalarFuncsCompressFactor" : 1.000000,
    "layer_0" : {
        "layer" : 0,
        "neurons" : 784,
        "weights" : 
        [
            [0.840188, 0.394383, 0.783099, 0.798440, 0.911647, 0.197551, 0.335223, 0.768230, 0.277775, 0.553970, 0.477397, 0.628871, 0.364784, 0.513401, 0.952230, 0.916195, 0.635712, 0.717297, 0.141603, 0.606969, 0.016301, 0.242887, 0.137232, 0.804177, 0.156679, 0.400944, 0.129790, 0.108809, 0.998924, 0.218257, 0.512932, 0.839112, 0.612640, 0.296032, 0.637552, 0.524287, 0.493583, 0.972775, 0.292517, 0.771358, 0.526745, 0.769914, 0.400229, 0.891529, 0.283315, 0.352458, 0.807725, 0.919026, 0.069755, 0.949327, 0.525995, 0.086056, 0.192214, 0.663227, 0.890233, 0.348893, 0.064171, 0.020023, 0.457702, 0.063096, 0.238280, 0.970634, 0.902208, 0.850920, 0.266666, 0.539760, 0.375207, 0.760249, 0.512535, 0.667724, 0.431611, -4.401444, -14.088552, -12.314219, -12.909121, -7.032347, -1.756810, 0.738534, 0.639979, 0.354049, 0.687861, 0.165974, 0.440105, 0.880075, 0.829201, 0.330337, 0.228968, 0.893372, 0.350360, 0.686670, 0.956468, 0.588640, 0.657304, 0.858676, 0.193692, -1.473238, -4.395979, -6.735444, -12.801019, -22.429356, -33.319107, -32.027153, -19.889174, -9.190978, -1.213076, 0.881062, 0.641081, 0.431953, 0.619596, 0.281059, 0.786002, 0.307458, 0.447034, 0.226107, 0.187533, 0.276235, 0.556444, 0.416501, 0.169607, 0.906804, 0.103171, -3.439003, -4.709759, -10.983047, -26.525600, -43.045876, -61.888474, -91.649918, -99.838844, -75.928490, -45.380135, -20.388891, -9.841726, -2.241073, -3.028100, -2.465169, 0.125475, 0.793470, 0.164102, 0.745071, 0.074530, 0.950104, 0.052529, -0.150908, -3.210663, -5.085478, -9.150365, -11.648619, -14.771171, -27.403603, -40.754925, -70.415550, -105.097153, -147.622955, -186.129944, -219.109634, -227.615067, -191.179688, -141.303360, -90.327255, -54.953598, -33.453476, -14.653019, -5.512623, 0.999994, 0.204329, 0.889956, 0.125468, 0.997799, 0.054058, 0.870540, -7.320069, -17.219051, -19.290115, -21.236683, -29.251884, -42.318859, -68.188805, -97.934395, -123.860580, -155.558380, -209.464630, -262.763153, -275.810944, -269.350800, -250.109329, -228.184479, -167.707581, -116.528648, -82.924240, -42.509861, -21.603100, -8.180900, -0.483044, 0.035421, 0.747803, 0.833239, 0.925377, 0.873271, -13.975379, -25.281160, -32.275188, -39.016880, -49.264359, -80.424751, -113.575897, -135.529694, -162.803040, -214.739716, -286.540100, -309.546631, -305.138367, -303.863159, -290.149902, -278.613251, -252.341003, -173.004364, -115.850395, -54.123501, -23.281385, -10.803453, -6.011328, 0.510686, 0.971466, 0.280042, 0.546107, 0.719269, -13.531769, -29.977861, -35.104099, -43.311234, -63.958805, -85.844490, -129.863922, -163.904968, -207.257416, -263.145142, -307.918823, -302.574554, -283.254425, -276.946747, -290.566498, -278.038605, -273.625610, -233.127838, -148.368484, -53.268993, -20.219782, -7.855754, -7.153932, 0.673936, 0.637640, 0.347116, -0.758790, 0.609106, -6.982604, -18.068371, -30.689753, -41.765198, -51.416286, -62.602318, -109.084145, -151.980942, -214.598160, -262.453766, -278.581146, -250.349487, -222.771103, -238.116592, -255.152115, -265.042633, -282.289276, -246.057205, -151.690033, -48.002396, -13.155729, -2.563321, -2.127164, 0.329642, 0.189751, 0.984363, -0.105277, 0.827391, -4.696477, -10.879067, -19.063372, -29.219431, -40.631329, -59.333454, -108.995377, -172.077698, -237.748032, -245.129761, -221.894257, -179.664932, -175.789215, -194.903641, -223.503036, -262.685608, -272.533356, -233.176514, -133.376251, -38.028645, -8.090248, -0.169985, 0.576200, 0.162757, 0.273911, 0.864579, 0.492399, 0.463662, -0.942865, -4.849625, -19.956800, -30.211292, -59.325169, -77.766220, -138.050430, -194.678009, -250.740234, -240.624313, -204.955215, -166.754044, -169.959641, -187.116409, -225.810120, -247.685394, -250.992783, -212.580444, -115.207245, -42.151218, -5.187847, -0.238264, 0.818128, 0.496074, 0.334972, 0.394327, 0.658831, 0.608883, -2.115238, -6.322662, -21.186960, -36.583218, -73.387306, -107.405624, -158.552383, -223.564438, -245.949158, -217.528534, -199.555038, -183.702423, -213.791382, -228.066208, -231.182022, -231.418655, -217.718216, -178.525864, -97.689644, -43.044857, -8.707404, -2.648854, 0.426199, 0.829939, 0.394388, 0.244327, 0.326013, 0.729360, -1.735490, -8.011226, -18.632278, -42.397423, -76.941635, -113.706047, -162.406509, -206.351471, -217.151016, -190.575150, -200.872803, -226.375351, -257.773407, -255.336731, -230.497986, -232.069427, -176.727127, -163.024902, -104.633018, -46.623268, -11.719328, -3.634971, 0.382896, 0.301763, 0.657120, 0.809095, 0.131702, 0.051508, -2.320722, -9.106412, -14.399454, -42.895149, -80.944664, -123.053963, -161.928986, -179.601715, -190.823242, -190.447357, -219.946991, -243.656525, -264.619324, -254.924698, -222.867783, -202.402771, -171.996399, -161.534897, -102.902679, -43.236786, -16.605692, -8.481720, -0.636605, 0.923728, 0.169649, 0.481733, 0.225491, 0.826769, -1.948931, -9.192003, -20.511089, -56.720802, -96.624168, -150.597794, -185.609711, -198.946671, -165.252045, -176.419479, -217.097168, -233.399246, -252.308243, -229.688202, -212.064117, -189.805054, -186.179626, -166.364990, -92.767685, -47.904961, -24.800655, -10.916071, -2.583193, 0.230996, 0.385748, 0.532846, 0.154724, 0.555398, 0.014579, -5.327622, -25.159843, -60.296730, -108.906830, -163.215546, -184.876846, -188.806793, -160.961136, -165.550400, -188.453079, -207.338196, -214.183685, -204.969391, -186.295731, -190.830688, -197.084396, -158.042923, -95.758575, -40.740913, -14.310734, -5.069765, 0.718867, 0.801897, 0.677812, 0.152876, 0.032893, 0.063561, 0.685722, -2.050975, -22.180799, -55.099216, -120.006836, -164.192200, -167.397812, -165.589447, -149.198074, -148.980911, -170.327057, -196.302261, -189.512833, -174.892685, -172.704559, -182.209000, -196.396362, -146.925461, -86.974686, -37.240479, -11.151639, -5.091330, 0.675654, 0.904170, 0.191112, 0.394521, 0.706067, 0.868924, 0.547397, -3.459161, -22.141453, -61.646343, -133.064133, -157.626648, -159.503555, -147.926666, -117.832077, -119.274918, -147.927139, -172.858994, -179.542847, -165.097855, -191.305222, -205.714539, -181.480377, -111.599770, -75.970543, -41.806767, -21.866495, -9.825532, 0.794910, 0.262785, 0.604379, 0.470564, 0.166955, 0.795490, 0.865085, -1.720902, -24.662220, -69.235184, -124.568062, -150.513687, -162.844315, -162.454025, -138.762833, -137.226303, -166.214706, -199.809509, -203.956070, -205.098343, -232.533173, -214.469070, -149.752914, -88.979584, -63.562519, -38.383160, -16.662756, -2.351193, 0.452122, 0.143982, 0.413078, 0.247033, 0.406767, 0.017457, 0.717597, -4.357176, -32.727623, -78.470703, -137.452606, -173.654678, -190.566025, -203.376450, -202.917679, -204.704651, -217.923096, -234.556824, -249.204315, -241.131393, -217.918167, -169.469208, -96.361107, -70.756767, -49.882004, -28.352713, -10.007116, -1.442093, 0.767014, 0.333569, 0.536743, 0.219136, 0.477551, 0.949820, 0.466169, -4.542301, -35.196331, -71.056557, -138.174469, -189.456055, -225.865860, -255.148376, -258.926147, -275.432617, -270.054291, -271.135834, -266.346619, -223.296341, -179.686829, -123.470177, -83.893524, -57.997776, -42.351398, -15.880542, -4.632387, -4.572580, 0.606542, 0.865434, 0.109778, 0.373556, 0.199003, 0.646520, 0.592692, -4.359200, -28.929527, -51.398518, -105.510834, -170.763779, -225.006561, -271.833527, -293.517151, -280.255920, -267.948578, -262.472260, -231.763687, -180.142746, -130.485306, -85.256828, -56.532913, -37.009174, -25.185732, -10.036976, -1.140857, 0.155336, 0.292889, 0.882204, 0.366028, 0.899431, 0.747638, 0.475806, 0.272987, -1.946780, -14.429320, -37.821735, -73.024368, -116.289879, -183.806992, -243.122498, -249.710129, -224.453232, -213.523331, -194.817093, -140.562943, -103.418739, -74.408676, -45.237427, -32.050800, -19.867992, -14.955582, -6.327368, -6.852009, 0.915221, 0.100857, 0.614227, 0.070557, 0.393746, 0.496431, 0.436585, 0.293177, -2.620325, -4.416224, -12.902977, -49.302483, -81.242775, -127.841316, -150.578400, -138.896225, -111.025284, -102.029854, -90.471451, -61.779408, -53.076721, -39.218025, -26.574804, -12.467793, -3.765872, -2.496027, -0.377665, -3.109641, 0.766701, 0.803330, 0.698713, 0.681922, 0.904187, 0.312940, 0.752479, 0.297933, 0.809371, 0.189064, -0.577653, -11.922165, -29.069534, -41.316078, -36.924301, -19.946392, -23.244556, -27.121553, -21.118555, -13.709426, -10.524945, -3.205307, -1.916990, -0.031476, 0.536109, 0.168837, 0.584585, 0.476355, 0.815549, 0.926068, 0.526523, 0.582250, 0.729398, 0.225236, 0.264172, 0.633585, 0.538175, -0.167830, -6.003688, -15.450494, -20.555010, -16.121548, -10.805060, -5.122892, -13.909113, -17.027536, -13.602655, -7.315783, -2.221123, -4.185883, -0.538605, 0.759208, 0.258112, 0.683574, 0.016177, 0.845123, 0.852411, 0.600763, 0.321478, 0.667960, 0.526830, 0.848000, 0.250210, 0.256228, 0.073236, -3.014082, -5.510262, -3.358438, -0.140345, 0.821331, 0.958957, 0.736747, 0.343959, 0.359942, 0.043915, 0.023863, 0.005076, 0.487254, 0.292886, 0.708262, 0.820146, 0.507410, 0.467471, 0.078258, 0.190984, 0.483648, 0.923381, 0.043395],
            [0.084411, 0.244858, 0.711355, 0.611241, 0.092858, 0.961565, 0.867469, 0.166094, 0.475947, 0.757282, 0.777505, 0.006980, 0.578613, 0.736462, 0.743727, 0.922572, 0.096404, 0.787642, 0.946435, 0.101480, 0.274897, 0.239321, 0.809743, 0.095043, 0.746730, 0.277214, 0.173301, 0.937714, 0.760862, 0.096681, 0.981109, 0.845273, 0.341540, 0.692463, 0.456514, 0.434398, 0.654029, 0.323983, 0.600492, 0.129976, 0.081265, 0.377997, 0.136956, 0.659878, 0.114459, 0.880683, 0.582450, 0.210863, 0.668326, 0.528885, 0.312343, 0.943222, 0.768206, 0.122086, 0.038265, 0.514936, 0.399300, 0.211565, 0.452650, 0.160162, 0.308247, 0.433758, 0.005435, 0.649787, 0.126222, 0.461949, 0.084185, 0.780250, 0.785932, 0.684677, 0.818722, -3.196318, -13.233794, -12.076740, -12.133309, -6.912310, -0.938175, 0.109525, 0.387996, 0.596191, 0.638409, 0.700340, 0.539413, 0.406615, 0.822426, 0.577678, 0.921551, 0.221726, 0.789244, 0.374201, 0.381888, 0.097491, 0.807959, 0.387323, 0.522121, -1.261087, -3.541265, -6.081329, -11.627038, -20.726393, -30.419123, -28.876499, -18.560122, -8.666994, -0.572187, 0.029476, 0.755946, 0.599707, 0.139001, 0.143942, 0.195898, 0.777410, 0.844281, 0.735311, 0.184025, 0.666707, 0.312990, 0.105576, 0.888433, 0.102233, 0.479777, -2.994438, -4.566702, -10.463312, -24.518248, -39.301590, -57.037888, -83.714523, -91.275818, -68.890312, -41.658203, -18.576445, -8.977206, -1.628339, -2.040797, -2.696782, 0.673996, 0.629359, 0.832555, 0.812997, 0.773301, 0.028453, 0.590407, 0.001799, -2.336114, -4.097240, -8.814609, -11.247185, -13.231208, -25.784908, -37.694687, -64.759842, -95.799042, -134.816696, -170.133255, -200.454895, -208.016968, -174.276337, -129.129272, -83.305344, -49.997112, -30.552002, -13.057353, -4.822755, 0.394239, 0.272189, 0.599644, 0.068235, 0.901549, 0.432199, 0.881232, -6.093929, -15.307117, -18.023499, -19.673819, -26.693710, -38.611923, -62.168396, -90.135506, -113.935646, -141.890350, -191.657806, -240.458267, -252.583786, -246.238785, -228.829376, -209.011200, -153.984177, -106.896233, -75.890289, -39.143509, -19.769194, -7.523569, -0.329518, 0.175413, 0.044729, 0.959716, 0.775058, 0.112964, -12.688709, -23.824820, -29.217722, -35.975471, -45.288631, -73.711319, -103.529625, -123.246262, -148.984039, -196.864868, -262.044464, -282.989899, -279.292419, -277.977020, -265.418274, -255.286057, -230.709335, -158.166809, -105.587112, -48.882004, -21.432741, -9.557219, -6.092824, 0.268684, 0.191630, 0.693370, 0.444097, 0.236360, -11.832028, -27.642794, -32.309662, -39.970058, -58.494976, -78.492874, -119.534248, -150.251633, -188.818863, -240.214371, -281.324585, -277.138763, -259.163513, -253.904495, -266.017883, -254.489105, -249.878418, -213.340256, -135.170898, -48.931538, -18.409386, -7.148304, -7.086465, 0.600405, 0.967694, 0.109233, 0.005145, 0.159324, -6.161424, -16.895857, -27.987495, -38.439262, -46.703457, -57.384682, -99.478790, -138.713699, -196.540344, -240.677048, -255.004700, -228.489319, -203.796036, -218.522888, -233.198929, -242.519592, -258.499573, -224.962555, -138.757492, -44.470573, -11.848557, -2.649526, -1.752556, 0.601827, 0.835533, 0.563327, 0.102546, 0.803227, -3.926710, -10.061588, -16.892723, -27.150043, -37.651833, -54.655724, -99.466263, -156.695724, -218.135941, -223.832703, -202.938080, -165.110382, -160.810501, -178.242630, -204.654938, -240.338669, -248.991592, -213.188904, -122.902275, -35.452374, -7.919989, 0.015552, 0.261886, 0.748678, 0.036496, 0.721822, 0.350505, 0.872028, -1.356249, -4.344457, -17.871687, -26.869406, -54.315212, -71.220551, -126.062263, -178.735687, -228.953705, -220.636887, -187.308762, -152.672485, -155.485367, -170.895355, -206.484695, -226.640305, -229.342926, -194.494766, -106.303009, -38.714558, -4.429353, -0.972349, 0.886344, 0.176700, 0.639199, 0.148230, 0.925379, 0.675694, -1.304799, -5.655001, -18.927555, -33.445599, -66.958420, -98.444862, -145.290680, -204.470688, -224.309067, -198.910736, -182.998093, -167.769852, -194.975494, -208.928391, -211.324524, -212.094101, -199.233002, -163.967682, -89.631287, -38.958565, -7.531875, -2.567708, 0.615491, 0.517391, 0.378799, 0.501835, 0.694091, 0.017998, -1.524786, -7.622278, -16.684250, -39.128117, -69.679573, -104.232010, -147.986862, -188.832779, -198.948807, -173.863602, -183.721863, -207.610718, -236.222626, -233.078278, -211.176590, -213.044540, -162.374466, -149.266479, -95.786232, -43.260834, -10.427104, -2.640382, 0.129663, 0.013161, 0.144946, 0.745154, 0.530552, 0.523745, -1.927862, -8.537569, -13.360763, -39.011391, -73.669899, -112.522064, -148.330917, -164.154221, -174.637329, -174.723709, -201.131638, -222.306305, -242.104309, -233.100708, -203.849579, -185.571930, -157.611038, -147.958527, -94.277267, -39.492771, -15.375556, -6.951611, -0.158416, 0.971818, 0.653760, 0.644512, 0.984980, 0.798706, -1.662081, -8.233003, -19.265896, -51.610554, -88.467316, -137.602539, -169.389069, -181.744247, -151.861725, -161.086746, -199.136307, -213.334534, -231.098297, -209.621170, -194.124283, -172.883148, -170.578186, -152.188858, -85.432449, -43.331226, -22.838606, -9.683605, -2.754232, 0.819102, 0.473045, 0.522729, 0.790920, 0.126805, 0.167241, -4.453435, -22.465275, -54.930683, -100.093788, -149.407913, -169.629608, -173.281677, -148.046555, -151.424255, -172.622528, -190.235443, -195.678513, -187.250946, -169.709259, -174.404572, -180.408997, -144.902618, -87.586975, -37.612785, -13.376283, -4.187436, 0.859441, 0.322695, 0.381603, 0.867321, 0.141796, 0.854648, 0.390050, -1.116168, -19.893402, -50.531540, -109.686028, -149.397522, -153.108704, -151.819717, -136.622726, -136.641113, -156.672104, -179.617645, -173.767059, -160.026459, -158.360474, -166.623398, -179.436157, -135.016693, -79.344994, -33.915337, -10.095871, -5.340065, 0.468185, 0.663252, 0.864873, 0.327626, 0.985946, 0.246476, 0.194948, -3.714576, -21.021568, -56.070923, -122.608406, -144.707779, -146.681549, -135.034866, -107.327805, -109.767822, -135.395187, -158.860107, -164.302155, -150.861694, -175.541275, -188.496704, -165.923172, -102.059044, -69.763885, -38.814816, -20.554926, -8.961902, 0.349562, 0.730677, 0.827615, 0.817747, 0.393928, 0.692488, 0.145373, -1.994229, -22.250515, -63.423805, -114.083878, -138.270203, -148.681656, -148.574371, -127.002945, -126.090042, -151.877258, -183.412415, -186.765228, -188.299301, -212.989136, -195.468094, -136.582809, -81.238411, -57.731426, -35.520336, -15.047937, -1.936783, 0.390888, 0.716199, 0.547360, 0.740451, 0.446876, 0.374975, 0.558198, -3.670456, -30.635284, -71.652351, -125.991638, -159.366180, -175.269394, -185.446045, -185.749832, -187.015167, -199.729767, -214.669159, -228.158325, -220.554749, -199.964737, -155.391510, -87.870659, -64.619896, -46.178677, -26.166908, -9.816600, -1.403585, 0.002209, 0.764925, 0.537030, 0.393097, 0.481124, 0.084390, 0.133548, -4.036597, -32.634460, -64.506454, -126.110909, -173.564728, -207.004700, -233.333954, -236.686508, -252.359787, -247.299362, -247.789261, -243.624954, -204.796936, -164.170654, -113.107941, -76.296143, -53.480598, -38.283432, -14.737871, -4.505487, -4.317822, 0.034307, 0.774659, 0.792311, 0.036516, 0.539584, 0.329342, 0.429613, -4.586147, -26.597651, -46.517185, -96.107773, -155.898407, -205.861618, -248.072876, -268.553070, -255.844376, -245.308090, -239.750534, -212.655487, -165.211075, -119.737846, -77.672997, -51.703735, -34.050396, -22.831133, -9.679394, -1.634006, 0.749230, 0.474063, 0.860587, 0.804641, 0.508369, 0.635246, 0.596952, 0.544885, -2.470732, -12.382447, -34.415661, -67.176079, -106.713539, -168.518112, -222.539276, -228.574921, -204.737732, -194.671799, -178.187469, -128.322632, -94.173454, -67.750038, -41.729420, -28.345816, -18.268753, -13.762423, -5.776174, -6.537438, 0.973147, 0.519048, 0.613254, 0.722377, 0.993110, 0.473841, 0.527017, 0.501480, -2.509246, -4.746900, -12.271807, -44.996845, -74.320869, -117.378670, -138.084259, -127.405197, -101.349632, -93.631805, -82.194977, -56.652020, -48.262508, -36.274143, -24.162209, -11.651980, -3.494491, -2.547790, -0.609846, -2.067477, 0.356162, 0.480193, 0.142889, 0.329309, 0.999241, 0.756143, 0.051685, 0.992352, 0.229984, 0.578702, -0.577008, -10.632759, -26.013941, -37.446602, -33.412357, -17.624762, -21.241312, -24.756372, -19.984314, -13.285601, -8.954352, -3.034513, -1.711667, -0.052188, 0.916541, 0.264553, 0.265818, 0.725771, 0.590649, 0.313560, 0.547613, 0.946811, 0.793753, 0.690502, 0.276120, 0.792995, 0.446645, 0.158754, -5.569514, -13.798961, -18.115992, -14.970006, -10.247041, -4.359002, -12.528255, -15.527374, -12.483718, -6.554711, -1.936200, -3.632618, -0.189641, 0.467274, 0.251974, 0.970693, 0.678878, 0.215066, 0.235245, 0.944697, 0.940837, 0.825895, 0.258257, 0.488450, 0.772706, 0.052010, 0.178952, -3.184710, -5.019557, -3.011585, -0.238471, 0.630351, 0.302225, 0.283138, 0.909529, 0.317924, 0.892318, 0.728903, 0.956611, 0.254432, 0.109337, 0.697741, 0.759771, 0.609356, 0.165015, 0.011745, 0.580048, 0.843894, 0.226811, 0.815294],
            [0.788590, 0.167648, 0.641188, 0.046847, 0.656098, 0.413894, 0.098858, 0.835050, 0.462720, 0.943863, 0.460646, 0.839351, 0.574214, 0.762871, 0.122489, 0.483742, 0.080795, 0.014807, 0.212645, 0.037406, 0.269239, 0.321982, 0.735147, 0.029011, 0.931338, 0.900163, 0.040756, 0.511386, 0.744056, 0.267567, 0.326680, 0.532647, 0.435216, 0.967868, 0.579494, 0.091314, 0.381762, 0.678351, 0.926364, 0.844482, 0.622214, 0.387011, 0.683833, 0.196428, 0.149882, 0.806322, 0.680170, 0.230677, 0.821129, 0.892815, 0.268084, 0.090368, 0.214797, 0.003231, 0.119379, 0.146135, 0.903394, 0.160135, 0.657522, 0.647450, 0.427702, 0.984202, 0.180096, 0.862918, 0.952070, 0.759590, 0.954232, 0.333832, 0.437942, 0.880596, 0.105328, -3.182380, -10.343919, -8.811848, -9.848695, -5.244604, -0.822155, 0.936754, 0.648167, 0.489597, 0.829569, 0.916250, 0.579965, 0.044366, 0.919482, 0.699344, 0.190501, 0.822875, 0.859479, 0.848023, 0.470325, 0.287181, 0.832225, 0.650421, -0.029429, -0.966101, -3.090779, -5.407506, -9.725804, -16.197464, -23.702560, -23.248835, -14.308246, -7.131372, -0.835162, 0.164692, 0.670024, 0.827056, 0.101446, 0.318191, 0.316653, 0.931014, 0.234441, 0.896618, 0.975380, 0.153923, 0.595963, 0.165882, 0.976798, 0.455442, 0.013905, -2.156029, -3.058174, -7.729792, -19.993378, -31.225172, -45.071259, -66.721581, -72.491425, -55.001316, -33.023094, -14.087900, -7.568647, -1.550743, -2.093311, -2.136564, 0.428309, 0.904539, 0.030634, 0.529754, 0.222729, 0.347287, 0.460768, -0.034257, -2.230229, -3.456802, -6.662172, -8.213053, -10.675607, -20.140036, -29.941721, -51.373028, -76.799919, -107.899643, -135.895218, -160.013718, -165.448090, -139.777023, -102.979660, -65.690796, -39.742401, -24.014330, -9.844590, -3.261423, 0.259237, 0.144200, 0.089609, 0.687545, 0.048739, 0.120243, 0.217300, -5.130714, -12.122550, -14.101978, -15.227021, -20.798008, -30.924555, -49.760155, -71.661827, -90.372917, -112.989311, -152.599960, -192.082413, -200.900589, -196.448105, -182.066757, -167.067322, -122.303642, -84.496643, -60.607952, -30.759323, -15.704457, -5.792813, -0.159727, 0.613807, 0.990165, 0.796788, 0.703416, 0.677710, -9.979439, -18.377052, -23.248632, -29.052296, -36.414978, -58.657936, -82.477310, -99.117302, -118.859642, -157.359467, -208.864822, -226.242325, -223.023270, -222.098633, -211.469482, -204.051727, -184.371368, -126.166039, -84.678825, -39.513077, -17.064087, -7.154957, -4.027170, 0.144482, 0.637054, 0.495767, 0.758290, 0.627218, -9.681999, -21.802563, -25.785347, -32.194187, -46.757759, -62.742786, -95.213455, -119.469429, -150.668076, -192.428436, -224.853836, -221.237320, -206.864883, -202.732529, -211.835129, -203.153702, -199.670334, -170.338028, -108.119667, -38.566574, -14.678479, -5.401980, -4.821080, 0.546248, 0.551633, 0.762171, 0.000748, 0.188687, -5.294437, -13.291286, -21.852074, -30.505323, -36.796337, -46.283859, -79.503624, -111.325798, -156.711029, -191.272980, -202.897949, -183.057510, -163.392609, -174.154816, -185.994675, -193.459976, -206.106064, -179.880844, -110.601265, -35.552364, -9.808926, -2.236657, -0.928386, 0.147062, 0.849692, 0.756264, 0.613697, 0.401325, -3.148819, -7.703562, -13.663604, -21.272303, -29.523222, -43.506542, -79.834930, -125.117699, -173.754364, -179.453339, -161.815109, -131.144836, -128.169617, -142.336655, -162.545303, -192.563354, -199.542053, -170.193069, -97.843735, -27.922142, -5.639400, -0.424981, 0.567817, 0.930875, 0.267578, 0.405089, 0.077937, 0.117271, -1.151263, -3.141868, -14.286470, -21.529133, -43.700466, -57.260101, -100.552361, -141.753250, -183.127960, -175.712357, -149.568954, -121.925362, -123.534584, -136.386505, -164.189804, -180.350357, -183.341034, -154.820831, -84.165565, -31.038559, -3.921252, -0.691058, 0.998142, 0.238873, 0.158316, 0.565959, 0.169748, 0.425894, -0.768169, -4.489423, -15.003098, -26.686222, -54.097290, -78.718803, -115.306847, -163.476852, -179.635574, -159.003418, -146.318848, -133.923218, -156.297348, -166.189468, -168.740021, -168.630737, -158.688492, -130.545181, -71.286041, -30.903570, -6.073706, -1.975698, 0.400148, 0.770597, 0.463378, 0.398290, 0.009470, 0.621694, -0.774968, -6.400432, -13.823881, -30.714781, -55.917637, -82.832138, -118.646332, -150.918182, -158.563858, -138.563171, -146.185165, -165.145737, -188.657181, -185.773148, -168.217468, -170.116730, -129.020782, -119.101471, -76.796799, -34.480808, -7.788272, -2.073349, 0.195336, 0.293991, 0.025355, 0.595484, 0.064588, 0.488733, -0.745442, -6.920579, -10.986036, -30.901468, -59.247269, -89.885529, -117.887711, -130.972290, -139.047470, -138.588898, -160.778885, -177.781143, -193.094788, -185.828064, -162.729614, -147.367355, -125.566078, -117.793655, -75.468407, -31.574638, -11.777426, -6.012824, -0.087654, 0.814794, 0.895125, 0.645453, 0.108785, 0.920479, -1.399833, -6.810326, -15.230799, -41.491322, -71.000763, -110.062111, -135.487793, -145.070297, -120.635757, -129.248840, -159.000259, -170.288254, -184.437210, -167.636490, -154.562698, -137.897110, -136.506317, -122.105743, -67.449730, -34.586754, -17.636578, -8.144289, -1.418510, 0.749690, 0.304075, 0.237846, 0.564484, 0.199200, 0.883299, -3.500118, -18.558815, -44.197731, -79.332771, -118.976616, -135.226318, -138.278717, -118.226738, -120.883499, -137.655792, -151.257935, -156.084045, -149.451752, -135.965698, -139.154617, -144.566406, -114.970909, -69.886650, -30.025055, -10.723072, -3.521405, 0.717227, 0.815991, 0.515712, 0.504956, 0.565681, 0.819788, 0.742802, -1.507421, -16.654753, -40.184532, -87.360573, -119.885689, -121.594551, -120.576965, -108.539963, -109.214592, -124.322952, -142.851944, -138.071457, -127.932419, -126.390709, -133.315948, -143.629333, -107.427879, -62.720051, -27.130278, -7.945621, -3.771943, 0.332706, 0.607387, 0.006122, 0.049933, 0.423378, 0.521834, 0.554889, -2.081657, -16.535519, -44.960693, -97.852791, -115.266014, -116.323540, -107.531769, -86.001869, -87.165192, -108.100655, -126.734688, -130.828918, -120.790840, -139.630249, -150.559433, -132.183884, -81.870377, -55.199654, -30.234795, -15.615477, -7.021718, 0.967568, 0.495297, 0.282835, 0.300275, 0.102683, 0.288957, 0.350207, -1.371459, -17.710146, -50.022316, -91.012489, -110.310844, -119.270073, -118.469063, -100.995560, -100.578979, -120.923981, -146.475891, -148.564758, -150.320770, -170.107758, -156.212311, -109.328148, -65.326447, -46.446228, -28.528811, -12.073071, -1.413506, 0.872841, 0.307366, 0.498153, 0.840409, 0.802663, 0.780987, 0.140684, -2.697952, -24.445757, -57.293674, -100.367355, -126.395058, -139.588730, -147.703476, -148.300903, -149.463058, -159.092896, -170.969086, -181.490021, -176.494568, -159.343597, -123.829041, -70.467758, -51.278362, -36.956264, -20.697775, -7.205472, -1.572089, 0.816667, 0.186951, 0.910262, 0.689509, 0.494317, 0.408414, 0.529918, -3.668150, -26.239407, -51.400757, -101.131531, -138.777939, -165.453171, -186.470123, -189.263916, -201.276855, -197.446732, -198.162430, -194.730453, -163.397659, -130.968216, -89.781883, -61.138706, -42.445698, -30.807703, -11.518757, -4.039326, -2.977429, 0.280851, 0.815162, 0.656539, 0.097518, 0.002113, 0.566801, 0.787027, -3.182772, -20.601160, -37.291630, -76.738152, -125.057503, -163.631271, -197.678223, -214.330948, -204.660812, -195.830582, -191.644958, -169.197815, -132.063110, -95.285591, -61.567673, -41.275509, -26.957993, -18.258163, -7.139962, -0.806646, 0.152062, 0.236490, 0.750027, 0.669918, 0.517341, 0.565189, 0.326458, 0.614859, -1.545668, -9.738291, -27.870886, -53.764435, -84.657784, -134.305557, -176.963196, -182.667938, -163.438766, -155.314499, -142.343353, -101.981888, -75.183533, -54.535980, -33.205780, -22.759163, -13.893550, -10.605844, -4.904116, -5.272532, 0.169109, 0.732818, 0.949576, 0.321171, 0.969308, 0.699603, 0.991090, 0.486648, -1.828519, -3.576626, -9.740211, -35.345364, -59.204117, -93.253822, -109.733704, -101.961174, -81.160034, -74.519409, -66.015877, -44.605846, -38.343258, -28.591057, -19.168106, -9.276600, -2.817232, -1.954067, 0.254130, -1.962901, 0.770682, 0.843230, 0.563915, 0.939791, 0.576048, 0.513491, 0.260963, 0.545356, 0.213094, 0.252053, -0.823290, -8.285534, -20.765064, -30.180092, -26.847528, -13.888627, -16.765556, -19.636568, -15.207603, -9.843717, -6.769739, -2.046198, -0.958901, 0.353437, 0.504213, 0.571755, 0.652831, 0.132000, 0.917717, 0.433114, 0.480881, 0.688399, 0.276344, 0.044796, 0.628191, 0.852391, 0.558287, 0.754155, -4.677239, -10.789368, -15.039053, -11.731892, -7.935831, -3.253588, -10.090509, -12.344864, -9.765830, -5.339734, -1.370551, -2.949192, -0.490718, 0.723838, 0.322960, 0.847031, 0.288468, 0.864442, 0.418785, 0.941299, 0.996442, 0.336502, 0.374413, 0.477323, 0.024902, 0.650757, 0.522119, -1.929297, -4.180417, -2.824293, 0.051020, 0.900895, 0.851786, 0.683453, 0.330647, 0.101054, 0.394260, 0.893909, 0.660302, 0.885474, 0.094077, 0.425361, 0.236375, 0.153375, 0.149199, 0.559335, 0.000406, 0.437667, 0.423777, 0.419191],
            [0.378966, 0.420218, 0.755693, 0.753379, 0.897541, 0.780595, 0.404136, 0.419660, 0.433687, 0.907284, 0.500065, 0.975934, 0.808179, 0.351851, 0.659387, 0.138826, 0.452905, 0.053647, 0.032735, 0.113207, 0.939121, 0.126812, 0.538568, 0.175496, 0.280187, 0.687766, 0.734831, 0.280593, 0.125433, 0.158607, 0.699784, 0.504399, 0.578825, 0.455477, 0.257778, 0.476366, 0.236071, 0.661914, 0.896026, 0.669759, 0.569198, 0.396091, 0.645693, 0.377377, 0.747942, 0.305080, 0.516203, 0.200847, 0.358727, 0.548938, 0.314054, 0.297849, 0.675750, 0.852622, 0.473345, 0.955938, 0.540389, 0.208175, 0.236531, 0.665822, 0.366783, 0.936315, 0.170221, 0.945608, 0.391792, 0.427999, 0.421975, 0.627863, 0.089914, 0.318000, 0.208566, -3.297605, -12.231313, -10.860499, -12.297560, -6.449920, -1.571643, 0.552692, 0.662880, 0.607122, 0.101630, 0.976935, 0.904971, 0.777380, 0.829557, 0.378316, 0.733318, 0.369946, 0.586491, 0.969849, 0.035767, 0.953274, 0.906164, 0.205989, 0.679699, -1.839082, -3.640086, -6.408964, -11.090240, -20.071699, -29.479961, -28.506439, -18.187798, -8.660387, -1.046603, 0.419502, 0.814982, 0.415150, 0.972194, 0.477862, 0.022273, 0.073824, 0.454797, 0.927244, 0.851204, 0.284354, 0.305560, 0.584522, 0.654299, 0.892051, 0.554371, -2.488091, -3.794987, -10.008622, -23.626612, -38.456154, -55.010273, -81.495827, -89.589012, -67.326546, -40.474773, -17.687746, -8.383281, -1.576171, -2.780260, -2.777635, 0.056461, 0.871851, 0.489656, 0.028655, 0.349713, 0.511929, 0.102479, 0.204779, -2.580914, -3.794095, -8.779482, -10.292456, -13.214989, -24.547319, -36.261368, -63.348232, -93.321854, -131.212219, -165.792282, -195.018906, -202.707367, -170.281952, -125.515282, -80.952942, -48.488323, -30.373684, -12.112818, -4.151897, 0.750232, 0.052167, 0.978167, 0.806693, 0.924018, 0.467823, 0.835348, -6.319004, -14.380069, -17.086128, -19.381086, -25.815937, -36.972279, -60.963173, -87.944366, -110.698158, -138.057663, -186.374405, -234.176468, -245.873718, -240.387787, -222.935699, -203.188919, -149.643219, -103.732559, -74.263672, -37.609299, -19.656956, -7.311799, -0.194718, 0.286577, 0.395617, 0.847705, 0.264745, 0.202310, -12.433419, -22.681963, -29.400379, -35.532452, -44.063755, -71.282814, -101.526741, -120.796860, -144.964478, -191.873154, -255.131561, -276.144989, -271.948364, -271.256775, -257.965698, -248.382797, -224.807831, -153.591400, -103.248062, -47.419727, -21.037392, -9.081525, -5.250866, 0.664316, 0.394842, 0.482525, 0.950893, 0.790458, -11.835438, -26.930557, -30.824612, -39.333485, -56.433380, -76.748505, -116.316109, -145.780991, -184.702438, -234.542984, -274.150452, -269.516235, -252.082291, -247.325668, -259.209961, -247.454025, -243.956985, -207.438446, -132.098419, -47.468647, -17.175438, -6.847981, -6.551287, 0.164405, 0.274335, 0.133637, -0.011595, 0.669177, -6.164628, -15.982467, -27.187054, -36.928490, -44.994064, -56.145679, -97.764503, -135.081909, -191.025909, -234.210419, -247.778198, -222.877426, -198.869720, -212.438919, -227.127518, -236.285233, -251.430161, -219.308884, -134.950684, -42.712769, -11.461850, -2.875822, -1.927741, 0.402864, 0.624136, 0.670987, 0.470310, 0.898471, -3.674759, -9.473232, -16.816818, -26.468168, -36.845989, -53.530880, -97.404419, -153.328369, -212.050140, -218.433090, -198.371750, -160.028122, -156.893631, -173.759735, -198.918106, -234.725525, -243.270508, -207.308197, -119.601532, -34.114639, -7.642445, 0.303361, 0.260918, 0.864016, 0.997875, 0.485257, 0.266880, 0.622011, -1.443538, -3.936995, -17.535219, -26.121721, -53.252220, -69.875359, -122.802994, -173.673035, -223.830170, -214.477890, -182.739304, -148.191162, -151.516220, -166.491257, -200.755920, -220.053818, -223.609467, -189.789139, -102.706337, -37.873955, -4.354603, 0.002783, 0.119752, 0.165934, 0.859285, 0.380670, 0.029950, 0.857159, -1.253785, -5.480341, -18.478752, -32.680767, -65.859047, -95.075134, -140.624802, -199.219635, -219.208603, -193.887115, -177.900452, -164.012543, -190.623917, -203.442261, -205.857224, -206.374191, -194.149826, -159.599014, -87.621613, -38.409042, -7.582685, -1.949540, 0.966868, 0.186572, 0.867977, 0.086620, 0.352506, 0.727262, -1.652422, -7.643844, -16.331022, -38.262505, -68.035339, -101.679741, -144.429504, -183.808762, -194.138641, -169.735916, -178.884674, -202.298477, -229.602951, -226.591660, -205.410873, -206.870728, -157.882858, -145.395432, -93.634308, -42.040611, -10.025603, -3.179312, 0.759688, 0.873228, 0.055387, 0.726557, 0.059800, 0.923364, -1.306535, -8.120556, -12.881956, -38.579967, -71.779045, -109.594444, -144.264069, -160.107910, -170.218597, -169.235245, -195.973343, -216.976501, -236.238159, -227.095032, -198.219803, -180.915573, -153.412262, -143.709579, -91.465736, -38.093678, -15.524956, -6.696604, 0.336876, 0.528079, 0.069889, 0.751439, 0.401306, 0.125275, -1.521732, -8.058423, -19.028530, -50.603962, -86.031654, -134.186340, -164.926758, -176.891251, -147.026855, -157.560577, -194.020035, -207.980957, -224.839127, -204.404663, -188.923004, -168.803040, -165.689880, -148.916031, -82.888359, -42.621342, -21.490446, -9.705279, -1.734814, 0.994510, 0.221587, 0.943601, 0.522588, 0.291475, 0.695040, -4.167955, -22.370457, -53.886810, -97.413002, -145.311203, -164.929276, -168.525330, -144.100708, -148.081589, -167.698486, -185.251511, -190.887375, -183.132950, -165.683731, -170.182388, -175.939926, -140.533829, -85.126694, -36.417469, -13.082253, -4.529438, 0.653787, 0.009352, 0.609736, 0.605637, 0.003862, 0.831323, 0.549238, -1.470876, -20.218887, -49.529182, -107.083466, -145.863876, -148.820587, -147.026611, -133.186523, -132.445297, -152.428680, -174.894379, -168.236267, -156.396149, -154.414673, -162.840271, -175.269165, -131.193863, -77.212860, -32.762657, -9.863392, -4.923745, 0.962112, 0.561712, 0.661518, 0.615899, 0.571064, 0.271254, 0.221536, -3.170135, -20.483912, -54.419651, -119.385338, -140.802658, -142.991516, -131.718857, -104.717987, -106.682831, -132.128784, -153.965271, -160.159622, -147.195984, -170.443985, -183.974167, -161.570786, -100.082710, -67.889069, -37.246513, -19.358118, -8.563447, 0.174850, 0.335712, 0.235453, 0.136962, 0.897424, 0.896971, 0.752861, -1.845874, -22.424335, -61.131241, -111.574020, -134.453430, -144.981064, -145.119232, -123.293083, -122.040611, -147.444031, -178.378586, -181.958710, -183.406509, -207.693512, -190.778976, -133.375946, -78.817719, -55.972641, -34.874046, -15.016108, -2.555824, 0.655914, 0.986918, 0.991413, 0.830764, 0.322630, 0.226866, 0.967726, -4.176178, -29.779503, -69.749725, -122.242340, -154.935760, -170.050720, -180.584244, -180.350540, -182.567566, -193.856674, -209.124908, -222.035126, -214.885834, -194.757217, -151.335907, -85.655197, -63.119968, -44.330647, -25.900751, -9.441819, -1.449970, 0.286825, 0.499956, 0.744678, 0.942739, 0.486873, 0.736091, 0.773503, -4.028337, -31.269781, -62.755028, -123.552101, -169.484482, -201.526199, -227.487030, -230.622635, -246.001358, -241.070450, -240.955887, -237.113297, -199.200241, -160.667572, -109.821579, -74.055222, -51.807411, -37.889923, -14.181905, -4.274380, -4.174485, 0.778152, 0.993547, 0.726900, 0.064977, 0.493503, 0.471579, 0.007716, -3.508724, -26.106503, -45.078747, -93.750694, -152.531067, -200.231567, -241.476089, -261.660400, -248.814957, -239.087753, -233.807800, -207.097855, -160.375381, -116.570915, -75.418892, -50.482159, -32.851738, -22.631111, -9.303837, -0.977968, 0.725663, 0.771367, 0.571708, 0.815402, 0.549519, 0.565256, 0.542302, 0.614496, -2.519017, -12.953251, -33.854481, -65.592781, -104.052315, -164.239685, -216.019943, -222.425552, -199.273911, -189.829147, -173.526306, -124.529228, -92.114510, -66.255623, -41.126587, -28.417593, -16.997635, -12.654720, -5.563843, -6.242925, 0.324591, 0.702437, 0.342352, 0.050254, 0.473805, 0.914060, 0.865657, 0.023323, -2.072899, -4.339910, -11.365181, -43.574486, -72.006210, -114.042053, -134.328262, -123.806000, -98.597496, -91.401375, -80.617821, -54.941807, -47.433300, -34.868622, -23.822758, -11.172782, -3.181560, -2.251825, -0.226784, -1.981534, 0.339920, 0.902216, 0.277614, 0.664511, 0.604654, 0.619965, 0.714766, 0.078458, 0.534025, 0.580422, -0.939507, -10.658190, -25.004608, -36.217590, -32.569065, -17.482267, -20.223919, -24.064291, -19.531818, -12.380277, -8.884155, -3.590727, -1.876262, 0.332146, 0.728938, 0.751912, 0.830184, 0.745415, 0.302601, 0.244425, 0.580364, 0.642521, 0.146641, 0.857978, 0.307032, 0.751295, 0.477943, -0.142638, -5.351057, -14.067809, -17.896122, -13.896296, -9.958265, -4.247547, -12.320398, -15.153703, -12.499194, -6.078605, -1.898585, -3.969803, -0.336850, 0.240195, 0.143621, 0.586287, 0.829717, 0.917979, 0.338199, 0.659901, 0.663394, 0.640800, 0.904326, 0.243758, 0.283321, 0.050967, 0.101735, -2.556460, -4.904439, -2.959083, 0.013710, 0.632015, 0.591647, 0.214373, 0.563550, 0.616955, 0.804975, 0.234686, 0.193679, 0.805799, 0.905452, 0.899026, 0.860237, 0.239309, 0.139221, 0.003858, 0.825596, 0.968939, 0.921837, 0.163796],
            [0.628840, 0.585230, 0.804596, 0.533165, 0.828988, 0.087917, 0.584132, 0.930723, 0.678271, 0.386394, 0.510402, 0.290423, 0.018409, 0.102048, 0.504796, 0.581960, 0.719004, 0.309771, 0.816646, 0.912683, 0.115571, 0.722097, 0.811709, 0.975807, 0.961406, 0.950930, 0.979666, 0.787003, 0.919869, 0.901503, 0.950798, 0.548708, 0.486733, 0.755394, 0.081873, 0.315721, 0.843312, 0.666005, 0.246445, 0.521583, 0.052399, 0.756846, 0.812006, 0.070808, 0.858895, 0.316802, 0.652768, 0.577898, 0.626573, 0.469413, 0.490581, 0.742143, 0.191511, 0.302290, 0.717951, 0.152917, 0.253220, 0.697616, 0.939920, 0.173089, 0.599119, 0.890718, 0.721797, 0.085852, 0.646113, 0.803670, 0.401573, 0.489424, 0.469676, 0.648018, -0.099413, -4.381573, -15.640088, -13.807297, -14.687206, -8.294166, -2.113155, 0.245651, 0.841657, 0.766387, 0.715065, 0.332238, 0.508530, 0.906575, 0.634528, 0.226481, 0.059492, 0.887748, 0.924097, 0.999412, 0.060836, 0.523216, 0.890130, 0.782633, 0.337370, -2.112818, -4.711819, -8.331808, -14.869206, -25.723373, -36.676041, -35.567574, -22.428406, -11.096701, -0.642293, 0.170937, 0.327282, 0.999500, 0.416589, 0.168940, 0.765887, 0.131653, 0.501178, 0.274417, 0.038229, 0.135705, 0.500898, 0.097721, 0.023453, 0.424995, 0.097133, -3.855340, -4.803557, -11.986805, -29.519461, -48.020466, -68.587585, -101.196083, -110.528168, -83.716034, -49.930981, -22.548397, -10.929780, -2.657421, -3.223391, -3.086551, 0.258196, 0.617387, 0.445033, 0.674785, 0.786326, 0.210920, 0.806438, -0.455348, -3.255003, -5.036230, -10.562046, -12.685848, -16.093494, -30.886074, -45.301903, -78.562630, -115.639694, -162.824402, -206.113586, -241.684509, -250.561478, -210.850998, -155.741821, -100.202698, -61.238987, -37.427433, -15.530006, -5.576827, 0.447564, 0.001326, 0.130842, 0.705760, 0.618712, 0.575875, 0.380544, -7.760669, -18.238144, -22.135807, -23.410357, -32.222977, -46.875313, -75.619438, -108.903763, -136.711731, -171.621628, -231.260849, -290.817017, -305.018677, -298.229767, -276.332458, -252.153214, -185.150085, -128.462845, -92.353195, -47.162849, -24.142231, -9.160513, -1.086381, 0.375405, 0.150208, 0.142949, 0.506247, 0.855968, -15.586665, -28.918478, -36.226971, -43.909897, -54.612411, -89.124397, -125.119934, -149.714218, -180.252762, -237.160263, -316.136780, -342.149628, -336.752106, -336.259460, -320.315216, -307.924408, -279.014343, -190.994324, -128.105301, -59.822056, -26.344254, -11.718595, -6.885818, 0.763811, 0.166998, 0.615842, 0.139216, 0.317206, -14.307281, -32.982567, -39.249428, -48.353661, -70.411148, -94.770561, -143.680267, -180.904404, -228.076538, -290.469025, -340.003601, -334.823914, -312.607300, -306.532928, -320.800140, -307.634888, -302.418610, -258.166077, -163.419006, -59.225998, -21.741348, -8.327429, -8.327088, 0.717047, 0.275933, 0.822086, -0.562392, 0.442931, -7.966901, -20.147532, -33.500969, -46.757244, -56.756809, -69.238373, -120.536125, -167.600876, -236.981583, -290.086639, -307.219788, -276.649109, -246.095474, -263.471405, -281.512390, -292.464081, -311.798248, -272.283905, -167.706406, -53.099533, -14.514544, -3.470622, -1.695982, 0.985593, 0.032038, 0.322070, 0.582266, 0.307971, -5.408266, -12.043570, -20.794888, -32.762222, -45.104103, -65.885315, -120.392212, -190.149658, -262.938965, -270.709320, -245.895187, -198.701950, -194.298325, -215.612457, -246.173721, -290.233185, -300.713470, -257.501129, -148.023209, -42.579483, -9.297274, 0.115438, 0.113363, 0.952308, 0.074458, 0.087565, 0.937901, 0.106496, -1.570732, -5.267970, -21.964979, -33.030067, -65.480896, -86.556519, -152.526215, -215.091629, -276.835968, -265.801361, -226.482697, -184.259064, -187.574814, -206.493057, -248.686584, -273.471222, -277.275513, -234.329300, -128.140732, -47.181458, -6.121461, -0.703107, 0.833099, 0.909708, 0.339058, 0.946461, 0.862016, 0.413516, -2.589959, -6.356206, -22.979347, -40.105194, -81.366898, -118.134018, -174.477692, -247.046829, -271.646942, -240.590714, -220.542923, -202.764008, -236.391205, -252.070450, -255.334045, -255.735779, -240.342987, -197.379379, -107.835892, -47.365726, -9.173435, -2.612103, 0.148539, 0.976408, 0.416609, 0.981637, 0.886116, 0.755667, -1.695886, -9.196488, -20.800482, -46.883739, -84.617065, -125.383354, -178.996597, -227.781021, -240.049423, -210.395996, -221.735443, -250.271393, -284.989441, -281.953644, -254.605972, -256.846558, -195.266388, -179.910080, -116.057587, -52.379143, -12.847354, -3.314492, 0.840433, 0.878644, 0.744372, 0.988972, 0.855051, 0.160982, -1.653375, -9.831493, -15.862587, -47.261551, -89.425476, -135.977814, -178.643250, -198.955795, -210.561234, -210.741608, -243.319931, -269.077911, -292.620148, -281.841461, -246.237686, -224.023315, -190.128647, -178.483551, -113.534401, -47.866402, -19.245968, -8.617952, -0.573480, 0.220673, 0.647033, 0.080166, 0.099316, 0.391405, -2.406320, -9.601789, -23.087011, -63.010082, -106.947266, -166.611725, -204.113770, -219.838608, -182.836899, -194.776520, -240.526474, -257.860168, -278.917816, -253.700012, -234.190826, -209.034500, -205.857178, -183.768173, -102.330429, -52.198132, -27.375858, -11.681880, -3.227431, 0.491571, 0.567389, 0.348555, 0.712244, 0.214422, 0.428720, -5.498339, -27.619682, -66.460022, -120.360023, -180.424942, -204.393784, -208.695679, -178.192749, -183.172119, -208.453461, -229.678406, -236.713867, -226.272308, -205.271057, -211.021332, -218.493591, -175.006454, -106.408852, -44.937149, -16.160707, -5.984365, 0.594273, 0.564199, 0.752395, 0.703096, 0.055770, 0.319784, 0.051651, -1.704949, -24.657444, -61.170578, -132.631348, -181.239883, -183.935410, -182.893921, -164.806595, -164.802155, -188.339676, -216.180756, -208.774139, -193.483643, -191.613953, -201.691818, -216.937347, -162.642395, -95.669838, -40.871311, -12.015003, -5.858028, 0.081642, 0.951620, 0.704757, 0.675915, 0.515819, 0.457151, 0.379011, -4.066471, -24.715109, -67.939240, -147.692200, -174.423859, -176.296677, -163.013153, -130.318405, -131.926773, -164.074783, -191.138763, -198.588882, -183.005493, -211.699203, -227.824722, -200.265793, -123.457787, -83.903679, -46.036732, -24.594206, -11.444009, 0.284874, 0.262371, 0.958293, 0.366516, 0.213991, 0.663049, 0.042431, -2.135686, -27.861425, -76.530243, -137.989410, -166.021133, -179.717545, -179.385406, -153.243652, -151.500885, -183.125458, -220.835983, -225.185608, -226.605591, -256.968201, -236.929840, -165.043304, -98.766960, -69.806564, -42.874252, -17.968548, -3.184929, 0.268023, 0.268480, 0.391488, 0.552897, 0.530851, 0.349781, 0.919412, -4.701368, -37.043091, -86.373398, -151.855515, -192.212860, -211.210693, -223.935257, -224.216537, -226.628784, -240.978607, -259.072815, -274.465149, -266.013153, -240.787964, -187.331497, -106.145020, -78.330429, -55.322227, -31.665449, -11.709797, -2.421050, 0.119964, 0.256893, 0.281647, 0.387987, 0.525373, 0.673135, 0.940884, -5.937410, -39.927525, -77.844490, -152.340637, -210.093796, -249.521149, -282.561096, -286.140076, -304.889709, -299.290039, -299.607117, -294.142456, -246.748825, -198.616943, -136.616623, -92.423454, -64.248077, -47.082771, -18.009617, -5.483177, -4.480620, 0.946698, 0.032625, 0.961596, 0.066662, 0.289518, 0.243243, 0.454649, -4.746956, -31.697311, -56.446529, -116.295143, -188.308929, -248.558060, -299.629913, -323.640594, -309.493164, -295.999237, -290.383118, -256.519958, -198.929581, -144.800858, -93.629669, -62.465816, -40.632442, -28.529530, -10.874976, -2.210798, 0.253805, 0.162647, 0.757500, 0.052488, 0.109345, 0.790125, 0.014084, 0.176006, -3.115109, -15.812755, -42.101185, -80.451073, -129.075851, -204.048935, -268.015839, -276.028503, -247.795486, -235.586716, -215.739746, -155.067200, -113.972824, -82.199409, -50.364738, -35.025116, -21.543095, -16.278816, -6.643592, -7.928049, 0.531124, 0.768377, 0.470211, 0.784929, 0.931024, 0.227711, 0.837417, 0.040368, -3.144209, -5.030830, -14.657824, -54.574570, -89.685417, -140.882172, -166.264816, -153.973984, -122.137733, -113.016449, -99.547562, -68.646332, -58.643417, -43.557682, -29.604956, -13.546510, -4.421871, -3.310584, 0.172440, -3.199317, 0.526173, 0.820428, 0.644812, 0.057297, 0.588805, 0.115024, 0.842226, 0.519828, 0.342735, 0.679643, -0.732320, -12.881670, -31.714071, -45.057976, -40.606571, -21.538334, -25.695404, -29.563002, -23.380785, -15.689269, -11.479666, -4.244522, -1.980770, 0.084952, 0.745443, 0.167267, 0.984386, 0.517026, 0.325859, 0.950959, 0.807067, 0.852032, 0.771387, 0.451879, 0.909329, 0.360192, 0.566903, 0.547586, -6.788224, -16.559462, -22.520626, -17.956646, -12.111005, -5.032347, -15.894767, -18.789555, -14.909652, -7.535543, -3.052681, -4.468298, -0.494978, 0.386026, 0.842854, 0.989258, 0.789217, 0.644457, 0.156525, 0.773603, 0.161482, 0.482384, 0.724562, 0.968549, 0.334416, 0.495949, 0.420429, -3.657003, -6.219638, -3.402038, 0.252961, 0.736162, 0.896970, 0.426496, 0.176379, 0.167179, 0.388838, 0.393167, 0.895435, 0.991152, 0.233557, 0.073749, 0.515971, 0.570765, 0.459775, 0.358825, 0.560023, 0.248992, 0.003282, 0.716548],
            [0.022595, 0.164764, 0.198933, 0.747157, 0.133314, 0.533348, 0.243106, 0.553743, 0.777093, 0.099247, 0.541075, 0.772392, 0.835409, 0.438045, 0.198887, 0.011788, 0.605223, 0.587725, 0.404956, 0.500659, 0.578877, 0.638513, 0.574408, 0.094848, 0.209278, 0.034183, 0.453673, 0.769301, 0.283175, 0.456955, 0.485850, 0.305770, 0.621719, 0.684782, 0.052926, 0.755033, 0.218131, 0.296033, 0.308776, 0.995223, 0.395280, 0.849850, 0.767615, 0.230689, 0.287895, 0.966503, 0.242477, 0.893119, 0.554228, 0.647433, 0.393777, 0.133104, 0.285946, 0.968185, 0.227952, 0.495224, 0.002368, 0.681625, 0.264525, 0.285543, 0.138580, 0.750374, 0.591312, 0.760300, 0.435157, 0.644239, 0.515333, 0.653287, 0.940271, 0.824109, 0.554294, -3.848704, -13.016554, -12.065653, -12.471021, -6.340093, -1.538763, 0.808718, 0.854973, 0.936856, 0.456151, 0.248750, 0.069960, 0.742097, 0.216935, 0.297912, 0.237321, 0.219303, 0.979537, 0.501846, 0.504845, 0.118118, 0.252221, 0.096157, 0.646758, -1.571296, -3.776950, -6.719434, -12.363076, -21.310478, -31.630718, -29.389835, -19.615997, -8.631701, -0.875627, 0.582460, 0.853671, 0.787929, 0.391178, 0.708644, 0.724785, 0.847330, 0.957394, 0.794745, 0.589427, 0.174330, 0.092657, 0.826748, 0.393632, 0.072194, 0.328595, -2.460575, -4.714269, -10.485895, -24.933302, -41.383156, -58.704399, -86.001694, -94.335854, -71.294350, -42.627220, -18.749231, -9.225440, -1.910761, -2.429092, -3.013794, 0.014377, 0.425826, 0.791261, 0.405555, 0.134470, 0.516046, 0.252885, -0.542092, -2.881770, -4.179891, -9.116386, -11.274488, -13.880563, -26.086674, -38.548393, -66.098999, -98.597389, -138.609299, -175.358078, -206.051422, -213.887497, -179.551727, -133.341797, -85.715240, -51.883446, -31.555193, -12.990557, -5.293820, 0.135586, 0.449652, 0.056883, 0.149964, 0.875478, 0.848144, 0.555519, -6.958980, -15.876035, -18.254477, -20.482475, -27.077309, -39.402634, -64.283241, -93.098763, -117.208008, -146.943466, -197.407898, -247.916199, -259.832275, -254.344666, -234.974289, -215.463516, -157.847427, -109.392525, -78.689003, -40.468658, -20.992636, -8.282763, -1.017737, 0.251634, 0.266301, 0.479015, 0.308517, 0.416264, -13.603326, -24.608343, -30.169350, -37.275787, -46.854038, -75.669113, -107.067886, -127.708397, -153.809921, -202.424362, -269.913086, -291.672150, -287.039001, -286.243530, -273.690033, -262.869995, -238.135849, -162.451752, -108.865494, -51.096355, -21.837805, -10.379407, -6.122915, 0.904658, 0.145065, 0.184280, 0.156293, 0.411366, -12.200134, -28.254887, -32.833996, -41.708023, -60.102798, -80.448082, -122.828194, -154.760147, -194.788055, -247.538681, -290.507874, -286.027893, -266.576599, -261.107758, -273.614319, -262.026672, -257.813385, -219.660492, -139.085098, -50.324600, -18.310244, -7.216658, -6.908755, 0.499881, 0.594719, 0.647059, -0.484191, 0.739784, -6.341308, -17.169470, -29.095356, -39.578964, -48.637302, -58.898010, -102.948288, -143.219147, -201.754013, -247.023315, -261.923553, -235.897827, -210.083084, -224.969650, -240.238464, -249.541092, -265.753021, -232.423248, -142.625168, -45.717609, -11.723850, -2.185061, -1.608042, 0.752080, 0.544142, 0.161975, 0.149415, 0.138860, -3.930661, -9.782019, -17.507355, -27.811712, -38.952427, -56.612885, -103.257790, -162.073730, -224.752457, -230.792130, -209.014557, -169.462082, -166.024155, -183.850677, -210.735886, -248.125214, -256.678741, -219.621735, -125.897972, -36.171780, -7.814073, 0.051747, 0.727863, 0.601114, 0.645571, 0.397697, 0.353195, 0.189713, -1.132445, -4.439638, -18.763012, -28.285978, -56.304131, -73.778427, -130.243958, -183.587570, -236.574875, -227.466873, -193.162125, -157.115601, -159.626617, -176.242493, -212.963211, -233.337341, -236.703720, -200.555252, -108.868393, -40.494705, -4.790479, -0.684349, 0.645801, 0.332107, 0.011693, 0.373665, 0.933221, 0.657264, -1.470693, -5.820783, -19.198034, -34.261230, -68.899559, -101.416672, -149.018753, -210.877167, -231.535736, -204.753342, -188.372894, -173.102097, -200.928253, -215.271515, -217.821762, -218.031403, -204.455048, -168.223740, -91.691658, -40.797520, -8.331072, -2.428125, 0.356471, 0.764388, 0.926707, 0.002273, 0.096495, 0.938399, -1.866117, -8.453216, -17.289940, -40.664173, -72.349213, -107.134201, -152.606323, -195.017044, -204.808273, -179.768600, -189.129868, -214.224579, -242.794708, -239.778610, -217.140549, -218.997787, -166.923431, -153.367340, -98.679169, -44.441399, -10.749319, -3.160958, 0.571328, 0.458426, 0.959017, 0.927800, 0.222814, 0.885723, -1.311982, -8.698696, -13.487673, -40.779404, -76.371384, -115.686928, -152.728592, -169.171463, -179.535095, -179.187180, -206.825134, -229.500076, -250.190445, -240.563965, -209.808105, -190.401337, -162.389053, -152.724365, -96.804535, -40.390285, -15.840346, -7.942829, 0.194746, 0.972206, 0.482785, 0.459128, 0.430632, 0.441802, -1.728217, -8.350460, -19.839359, -53.474827, -90.873482, -142.422516, -174.367950, -187.462540, -155.962906, -166.828232, -204.443192, -219.863251, -238.055664, -215.878754, -199.590576, -178.915085, -176.025848, -157.128769, -87.986031, -45.009083, -23.247824, -9.738052, -1.948503, 0.086752, 0.971227, 0.782597, 0.058958, 0.454012, 0.241726, -4.891144, -23.182293, -56.494625, -103.206451, -153.867447, -173.935226, -178.383041, -152.213577, -156.112885, -177.941406, -195.153397, -201.578384, -193.433380, -175.257797, -179.741180, -186.274078, -149.230255, -90.077881, -38.499748, -13.172764, -4.238959, 0.698442, 0.189145, 0.735523, 0.593240, 0.275897, 0.706750, 0.375837, -1.774212, -21.324575, -51.974438, -112.828476, -154.707138, -157.538284, -155.396439, -140.580444, -140.824814, -161.266205, -184.589478, -178.253799, -165.001663, -163.040161, -171.964981, -184.457962, -138.321426, -82.083206, -35.012012, -10.710091, -4.756161, 0.607557, 0.967137, 0.713949, 0.306000, 0.156282, 0.449472, 0.899239, -3.523196, -21.587936, -58.051895, -125.540634, -148.780533, -150.327484, -139.287369, -111.187561, -113.148827, -139.647476, -163.113525, -169.518112, -155.618652, -180.954407, -194.689484, -171.184631, -105.087029, -71.656441, -39.899197, -20.444077, -9.445163, 0.338052, 0.167628, 0.384316, 0.945610, 0.134765, 0.098265, 0.251609, -2.152792, -23.324268, -65.503777, -117.289688, -141.748734, -153.668915, -153.114822, -130.894119, -129.574570, -156.661636, -188.662704, -192.306961, -193.470322, -219.612000, -201.461777, -141.313919, -83.978119, -59.070389, -36.500603, -15.809382, -2.443511, 0.554369, 0.157333, 0.931437, 0.892421, 0.324961, 0.315753, 0.838030, -4.187993, -31.207249, -74.443405, -129.257706, -163.200424, -180.324661, -191.263657, -190.657516, -192.911438, -205.058044, -220.656708, -234.137390, -227.825867, -206.182831, -159.983063, -90.572830, -66.971886, -47.585163, -26.655279, -9.845854, -2.096167, 0.415558, 0.751553, 0.486148, 0.969926, 0.908886, 0.417585, 0.862347, -4.881360, -33.363045, -66.463676, -130.003250, -179.192078, -212.837204, -240.905090, -244.204514, -260.344452, -254.584747, -255.139023, -250.747818, -210.114212, -169.419113, -116.284554, -78.331001, -54.579151, -40.135197, -14.973355, -4.557757, -4.152501, 0.584853, 0.157307, 0.464789, 0.000411, 0.908860, 0.950937, 0.970337, -3.929212, -27.470232, -47.679554, -99.949440, -161.414093, -211.794205, -255.519394, -276.775513, -263.897125, -253.282364, -247.642853, -218.844284, -170.518509, -123.732437, -80.482742, -52.731022, -34.758976, -23.767452, -9.150759, -1.850278, 0.856686, 0.534294, 0.809095, 0.211520, 0.119147, 0.966402, 0.676309, 0.119558, -1.852788, -13.092570, -36.385113, -68.740211, -109.316238, -173.228378, -228.635727, -235.597916, -211.321365, -201.000992, -183.901260, -131.881500, -96.914825, -69.648376, -43.411823, -29.447069, -18.047832, -14.035388, -5.627959, -6.643989, 0.915202, 0.696600, 0.570257, 0.771888, 0.230895, 0.379351, 0.983408, 0.350042, -2.354060, -4.362730, -12.228537, -46.440418, -76.350937, -120.377983, -141.821320, -131.374695, -104.517334, -96.466545, -84.933228, -57.787636, -50.071625, -36.867016, -25.003439, -11.240256, -3.956943, -2.115353, -0.063736, -2.710648, 0.031546, 0.392351, 0.703671, 0.946748, 0.088951, 0.273928, 0.718636, 0.319846, 0.653280, 0.702045, -0.432751, -10.297084, -27.149508, -38.970280, -34.831909, -18.289972, -21.770720, -25.495100, -19.822472, -13.641050, -9.187202, -3.584250, -2.130591, 0.669171, -0.008950, 0.835205, 0.768731, 0.471414, 0.683944, 0.383512, 0.742122, 0.715490, 0.775863, 0.445793, 0.662239, 0.864814, 0.719721, 0.206844, -6.357866, -14.526771, -19.497021, -14.844859, -10.198277, -4.676333, -12.760229, -16.073107, -13.153272, -6.460157, -2.032933, -4.238451, 0.163520, 0.518839, 0.336692, 0.992843, 0.459913, 0.375724, 0.828048, 0.228644, 0.847139, 0.511992, 0.612156, 0.589260, 0.227483, 0.388019, 0.035053, -2.437271, -5.781608, -2.988104, -0.362391, 0.437493, 0.127776, 0.353516, 0.292041, 0.499810, 0.798198, 0.286077, 0.091891, 0.891607, 0.979094, 0.818041, 0.916476, 0.853167, 0.336880, 0.253167, 0.846010, 0.796793, 0.628892, 0.674058],
            [0.025437, 0.476030, 0.186050, 0.637593, 0.065291, 0.413533, 0.025613, 0.100344, 0.303254, 0.278446, 0.855119, 0.573851, 0.715939, 0.982895, 0.927367, 0.007980, 0.482704, 0.725565, 0.294057, 0.574596, 0.617172, 0.273151, 0.392637, 0.533647, 0.126318, 0.729517, 0.786815, 0.972328, 0.526310, 0.415707, 0.646386, 0.551747, 0.891737, 0.832436, 0.189341, 0.957028, 0.245969, 0.214953, 0.057372, 0.549223, 0.493399, 0.912490, 0.123074, 0.209338, 0.895385, 0.050441, 0.217318, 0.378089, 0.776006, 0.511375, 0.952685, 0.393178, 0.784525, 0.345322, 0.926825, 0.910843, 0.074839, 0.713640, 0.883171, 0.601149, 0.129347, 0.529557, 0.152896, 0.021083, 0.361993, 0.342237, 0.978111, 0.607963, 0.557190, 0.035483, 0.044949, -4.933225, -15.360344, -14.586787, -15.258070, -7.844538, -1.955525, 0.477245, 0.221448, 0.106707, 0.988620, 0.174133, 0.499884, 0.773145, 0.519454, 0.426709, 0.683988, 0.594293, 0.140349, 0.567160, 0.195442, 0.269696, 0.096717, 0.348338, 0.014646, -2.233591, -4.694027, -8.208609, -15.068113, -25.949213, -37.629395, -35.945606, -23.068197, -11.078788, -1.020031, 0.558282, 0.095704, 0.834820, 0.035527, 0.317152, 0.941527, 0.024147, 0.491285, 0.441411, 0.797292, 0.010739, 0.868120, 0.481280, 0.605032, 0.008469, 0.048440, -3.203461, -5.567528, -13.040804, -30.731098, -48.798286, -69.625214, -102.452141, -112.052727, -84.951866, -51.160984, -22.993931, -10.804045, -2.403235, -3.180531, -3.195482, 0.943790, 0.490257, 0.233338, 0.979317, 0.807409, 0.174864, 0.003464, -0.456496, -3.185591, -5.174953, -10.851914, -13.406503, -17.027809, -30.925886, -45.964825, -79.549225, -117.336868, -165.051651, -208.990219, -245.111755, -255.187943, -214.725220, -158.406158, -102.117050, -61.561512, -37.609432, -16.185038, -5.720385, 0.175803, 0.714563, 0.042955, 0.119594, 0.204820, 0.276292, 0.098911, -8.288933, -18.887831, -22.583437, -24.179646, -32.950191, -46.761116, -76.340546, -110.373177, -139.717636, -174.416092, -235.608414, -294.994690, -309.774048, -302.257538, -279.839935, -256.597168, -188.929016, -131.046890, -93.372162, -48.028679, -24.417095, -9.418861, -0.593667, 0.465249, 0.782753, 0.368065, 0.508204, 0.902347, -16.043674, -28.690744, -37.055500, -44.200157, -56.135368, -90.881332, -127.105804, -151.955063, -183.592651, -241.430710, -320.774506, -347.920227, -342.701202, -340.894104, -325.253693, -313.248718, -282.907349, -193.863037, -129.882156, -59.964046, -26.081827, -12.155085, -7.274849, 0.590430, 0.838098, 0.857997, 0.055680, 0.620851, -15.084545, -33.610588, -39.535931, -48.858242, -71.926147, -96.175743, -146.288895, -183.811615, -231.942062, -295.410706, -345.364197, -339.924255, -317.431671, -310.915253, -325.907379, -311.841400, -306.896881, -261.981934, -166.613251, -60.134266, -22.519243, -8.728442, -8.591457, 0.002816, 0.794331, 0.432440, -0.466592, 0.632429, -8.249871, -20.459030, -34.560165, -47.189587, -57.723671, -70.516113, -122.878342, -170.735428, -240.848877, -294.502747, -312.679718, -280.421692, -250.092331, -268.047821, -285.980469, -296.919464, -316.568756, -276.494873, -170.331070, -54.223301, -14.178564, -2.980190, -1.941754, 0.158204, 0.335684, 0.000879, 0.038730, 0.130015, -5.207595, -11.674763, -21.135862, -33.158661, -46.246815, -67.450409, -122.880325, -192.677994, -266.863068, -275.067871, -249.795868, -202.657059, -198.123260, -219.443710, -251.114395, -295.579437, -306.248718, -261.522949, -150.730637, -43.586605, -9.093693, -0.116148, 0.545102, 0.901698, 0.407224, 0.318036, 0.059902, 0.742907, -1.695301, -5.787097, -21.874308, -33.377586, -66.400238, -87.486191, -154.645401, -218.825897, -281.364014, -270.340546, -229.890625, -186.951569, -190.774307, -210.438370, -253.105118, -277.711670, -281.711975, -238.457199, -129.612686, -47.484177, -6.381156, -0.434438, 0.977834, 0.121319, 0.407591, 0.522936, 0.023016, 0.814815, -1.827863, -7.192321, -23.328362, -41.050190, -82.829063, -120.566772, -177.395126, -251.028885, -276.102173, -244.263046, -224.385422, -206.131287, -240.177490, -256.109894, -260.240997, -260.003052, -243.774307, -200.691025, -109.448799, -48.577282, -9.752725, -2.935344, 0.166045, 0.400048, 0.438262, 0.143879, 0.521366, 0.845853, -2.002020, -9.564007, -20.652868, -48.114719, -85.922768, -127.894157, -181.633392, -231.537735, -243.938522, -213.659378, -225.380096, -254.352142, -289.202545, -285.821899, -258.830627, -261.534698, -198.651276, -182.619431, -117.519470, -52.962254, -12.969030, -3.841822, 0.660021, 0.544789, 0.017372, 0.826066, 0.944836, 0.455634, -1.698890, -10.280283, -16.750217, -48.302990, -91.361694, -137.304413, -182.265457, -201.593140, -214.612717, -213.632843, -246.724182, -273.011993, -297.663574, -285.940887, -249.824631, -227.509018, -192.984146, -181.012848, -115.732712, -48.628605, -19.003744, -8.722299, -0.317176, 0.858682, 0.232680, 0.168829, 0.403471, 0.250052, -1.522874, -10.381394, -23.317162, -63.103420, -108.572632, -169.787308, -207.785965, -222.792419, -185.423996, -198.014374, -244.192734, -262.231171, -282.965088, -258.062927, -237.764572, -212.225723, -208.906799, -187.064224, -104.617630, -53.540047, -27.791748, -11.870069, -2.764585, 0.070161, 0.623145, 0.132878, 0.928843, 0.855825, 0.301707, -6.080747, -28.576866, -67.742119, -122.412376, -182.708588, -208.008698, -212.065613, -180.901886, -185.758163, -212.163010, -232.813980, -240.255539, -230.059814, -208.189056, -214.624802, -221.327835, -177.148743, -108.074852, -45.682220, -16.071953, -5.671811, 0.084372, 0.942319, 0.170648, 0.708442, 0.012480, 0.793793, 0.841320, -1.570850, -24.944786, -62.500740, -135.101547, -183.567184, -187.472229, -185.246658, -167.190979, -167.265411, -191.756805, -220.275543, -212.639725, -196.318054, -194.649094, -205.059662, -220.221939, -165.782684, -97.487419, -41.603683, -13.054785, -6.191492, 0.994449, 0.470665, 0.886977, 0.078821, 0.412984, 0.057625, 0.787263, -4.285438, -25.047461, -68.847824, -150.070770, -177.065491, -179.299545, -165.917725, -132.591888, -134.728546, -166.428070, -194.231949, -201.324585, -185.975662, -215.588593, -231.431824, -203.218796, -125.863457, -85.286079, -47.279480, -24.910955, -10.921032, 0.734549, 0.524240, 0.449341, 0.728998, 0.994905, 0.336318, 0.807820, -2.503041, -28.044325, -77.606873, -139.707092, -169.384079, -183.258438, -182.711044, -155.170090, -153.744644, -185.872070, -225.114136, -229.268753, -230.638107, -260.701965, -240.694031, -168.136002, -100.407814, -70.799599, -43.705593, -18.723909, -3.112889, 0.659527, 0.914185, 0.235534, 0.394076, 0.438425, 0.684875, 0.123074, -5.099400, -37.636623, -87.818642, -153.961502, -195.060349, -214.493073, -227.659515, -227.216003, -229.825989, -244.470703, -263.102203, -279.136688, -270.557404, -245.175247, -190.070679, -108.526260, -79.669334, -56.865486, -32.256317, -12.023526, -1.960082, 0.922876, 0.691367, 0.910459, 0.582403, 0.605552, 0.145992, 0.976479, -6.044891, -39.760601, -79.870255, -155.145584, -212.678558, -254.349716, -287.080811, -290.687317, -309.515564, -303.212280, -303.703613, -298.997467, -250.326935, -201.933029, -139.221146, -93.785553, -64.882584, -47.935429, -17.819118, -5.243174, -5.291664, 0.363496, 0.252969, 0.738156, 0.286372, 0.944336, 0.648614, 0.868776, -5.100348, -32.336666, -56.899765, -118.449020, -191.661636, -251.862686, -305.083344, -329.411438, -313.630585, -301.355865, -294.462494, -260.406525, -202.766479, -146.813278, -95.040741, -63.704075, -42.075394, -28.270130, -11.145270, -1.611621, 0.891137, 0.567361, 0.732163, 0.963799, 0.930858, 0.985132, 0.701954, 0.217230, -2.315469, -15.973289, -43.321110, -82.154854, -131.162552, -206.424820, -273.068573, -279.857697, -251.219543, -239.686981, -219.057114, -157.079300, -115.662079, -82.768555, -51.451912, -35.066978, -21.811470, -16.695076, -7.448909, -7.741516, 0.109479, 0.001257, 0.423773, 0.000616, 0.568618, 0.155936, 0.964415, 0.499476, -3.069645, -5.306502, -14.391008, -55.466469, -91.209579, -143.204407, -169.417801, -156.591080, -124.258911, -114.983231, -100.618507, -69.300232, -59.017315, -44.571182, -30.146753, -14.055507, -5.046397, -2.680338, -0.588178, -2.705374, 0.065129, 0.386059, 0.511541, 0.174608, 0.387317, 0.935314, 0.175224, 0.955935, 0.091250, 0.139639, -0.858623, -13.229719, -31.970085, -46.425552, -41.445446, -21.718828, -25.767776, -29.641874, -23.706720, -15.735833, -11.399736, -3.720614, -2.356922, -0.080030, 0.041685, 0.780215, 0.545005, 0.272612, 0.624592, 0.763532, 0.111803, 0.689720, 0.149591, 0.623344, 0.864328, 0.536908, 0.558658, -0.167868, -7.304654, -17.109951, -23.158611, -17.758192, -11.705904, -5.107521, -16.251110, -19.646393, -14.950092, -8.411941, -3.247107, -4.283858, -0.042176, 0.513700, 0.711019, 0.122846, 0.757085, 0.809777, 0.903061, 0.302090, 0.082389, 0.527653, 0.065622, 0.194191, 0.217373, 0.215213, 0.817535, -3.884399, -6.441488, -4.085630, -0.633318, 0.244964, 0.026102, 0.300446, 0.193217, 0.908329, 0.285645, 0.313588, 0.093412, 0.093790, 0.408787, 0.131244, 0.886992, 0.212788, 0.644944, 0.598011, 0.335635, 0.402029, 0.407788, 0.238696],
            [0.704119, 0.490177, 0.766349, 0.769741, 0.684368, 0.983723, 0.984954, 0.501904, 0.065424, 0.737075, 0.878097, 0.186679, 0.982038, 0.904200, 0.487124, 0.175256, 0.812529, 0.772770, 0.488844, 0.905941, 0.866560, 0.897631, 0.037185, 0.753552, 0.110419, 0.682129, 0.351563, 0.446054, 0.084158, 0.759351, 0.684750, 0.788277, 0.249527, 0.451100, 0.558018, 0.933895, 0.434822, 0.542972, 0.435799, 0.500247, 0.280047, 0.313896, 0.686925, 0.262086, 0.218096, 0.174050, 0.437341, 0.030625, 0.946819, 0.926185, 0.936566, 0.813380, 0.823816, 0.973751, 0.566932, 0.934235, 0.655881, 0.918494, 0.380289, 0.740039, 0.677845, 0.065039, 0.528316, 0.927372, 0.516139, 0.086335, 0.861267, 0.950961, 0.629307, 0.297067, 0.353244, -3.441989, -13.619864, -12.836781, -13.386859, -6.768259, -1.687476, 0.608781, 0.859685, 0.259002, 0.534966, 0.796251, 0.072382, 0.358782, 0.770003, 0.639313, 0.293017, 0.425883, 0.557807, 0.673306, 0.165922, 0.235652, 0.738345, 0.694238, -0.077836, -2.093899, -3.916195, -7.371707, -13.005133, -22.454786, -32.787491, -30.929813, -20.099255, -8.976141, -0.538320, 0.490673, 0.761380, 0.106969, 0.099454, 0.621065, 0.365971, 0.634420, 0.417316, 0.438352, 0.993202, 0.187319, 0.077665, 0.286219, 0.613202, 0.635472, 0.959525, -2.713345, -4.228256, -10.808708, -26.483843, -43.060513, -60.358265, -89.921677, -98.502846, -74.605148, -44.101273, -19.827595, -9.398822, -1.451761, -2.807192, -2.526577, 0.473722, 0.073500, 0.716208, 0.573176, 0.694565, 0.082178, 0.207597, -0.547332, -2.799646, -5.019891, -9.453121, -11.539331, -14.636757, -26.894356, -40.338352, -69.311981, -102.395035, -144.694901, -182.758575, -214.617096, -222.972900, -187.439590, -138.503403, -89.108147, -54.144615, -33.437576, -13.837191, -5.490853, 0.065685, 0.889300, 0.678259, 0.539406, 0.962800, 0.394466, 0.112583, -6.589481, -16.407146, -19.496529, -20.632868, -27.857256, -41.121887, -67.151871, -96.288689, -122.193047, -151.829697, -204.988205, -257.617462, -270.058105, -263.690033, -244.591110, -223.286301, -164.998184, -113.781174, -81.975937, -41.957912, -21.082756, -8.411956, -0.242302, 0.019303, 0.404403, 0.736634, 0.697562, 0.943810, -13.821208, -25.655611, -32.316162, -38.775810, -48.682266, -79.099548, -111.668060, -132.418777, -159.467087, -211.115158, -280.716400, -303.084473, -299.091461, -297.394165, -284.185364, -272.843506, -246.647186, -168.884689, -113.066605, -52.115841, -22.781439, -9.865665, -6.261614, 0.605035, 0.279778, 0.114345, 0.624338, 0.684182, -12.529173, -29.528948, -34.361446, -42.822189, -62.697632, -83.764900, -127.174713, -160.055817, -203.041336, -258.166199, -301.789825, -296.372772, -277.576874, -271.331940, -284.325500, -272.505798, -267.715546, -228.918671, -145.310150, -52.180756, -19.667839, -7.165503, -7.068952, 0.837920, 0.876848, 0.887879, -0.480099, 0.156626, -7.453723, -18.356932, -29.557467, -40.796429, -50.186272, -61.772869, -107.150299, -148.753265, -210.387939, -257.405243, -272.310486, -245.374161, -218.815811, -233.660065, -249.930252, -259.232574, -276.913971, -241.640793, -148.243271, -46.938694, -12.907974, -3.043364, -1.997071, 0.444000, 0.161534, 0.988646, 0.175414, 0.038381, -4.049056, -10.120539, -18.913437, -28.687366, -39.917397, -58.850739, -106.758301, -168.556183, -233.139877, -240.465012, -217.237686, -176.339417, -172.699646, -191.039490, -218.314880, -257.368439, -267.476257, -228.738846, -131.225479, -38.002750, -8.698571, -0.316856, 0.891999, 0.342109, 0.562997, 0.259777, 0.786109, 0.724531, -1.507811, -5.170561, -19.076235, -29.651516, -58.005112, -75.954178, -135.404373, -190.770309, -245.205536, -235.896790, -200.791168, -163.084335, -165.875519, -183.058502, -221.189667, -242.493927, -245.765030, -208.607544, -113.710846, -41.573673, -5.618821, -0.582788, 0.773755, 0.153942, 0.807650, 0.665754, 0.496051, 0.370647, -1.401478, -6.061063, -20.734659, -35.773975, -72.188263, -104.743065, -155.353348, -219.266556, -240.307724, -213.300507, -195.737640, -179.760971, -209.684280, -223.588959, -226.929810, -226.311523, -213.239410, -175.354462, -96.130066, -41.928997, -8.244247, -2.805941, 0.392188, 0.564988, 0.805541, 0.165943, 0.718930, 0.613192, -1.495313, -8.598332, -17.602303, -41.662598, -75.029953, -111.749100, -158.231827, -202.149063, -212.635880, -186.817413, -195.931870, -221.882660, -252.725769, -249.496735, -225.719070, -227.798599, -173.662033, -159.106903, -102.532303, -46.086147, -11.244193, -2.950990, 0.225397, 0.827517, 0.042592, 0.617585, 0.392505, 0.848133, -1.543482, -9.258204, -14.409191, -42.096870, -79.434776, -120.271286, -158.903275, -175.763031, -187.005402, -186.885010, -215.161850, -238.537521, -259.578674, -249.575287, -218.336746, -198.883377, -168.700058, -158.138474, -100.794365, -42.009399, -16.436548, -8.257933, -0.668032, 0.983414, 0.825177, 0.277245, 0.810932, 0.867769, -1.300462, -9.151569, -20.240837, -55.246197, -95.185463, -148.071274, -181.646912, -194.585663, -162.075821, -172.788406, -213.021149, -228.781448, -246.420609, -225.114578, -207.803680, -185.614609, -182.324127, -162.983536, -91.041779, -46.963871, -24.091467, -10.792074, -2.183266, 0.247751, 0.324874, 0.821938, 0.231166, 0.150051, 0.099183, -5.549282, -25.011889, -58.400711, -107.224182, -159.483185, -181.140152, -185.004944, -157.703201, -161.882034, -185.177460, -203.232635, -209.497360, -200.802002, -181.885681, -186.937317, -193.171432, -155.200012, -94.370056, -39.837326, -14.308515, -4.645884, 0.776320, 0.709567, 0.882019, 0.546409, 0.957318, 0.206893, 0.368347, -2.005825, -21.987778, -54.220612, -117.940338, -160.533157, -163.586395, -162.083267, -146.316757, -146.432724, -167.621063, -192.439331, -185.897766, -171.778381, -169.550858, -178.474808, -191.875443, -144.625427, -85.089798, -35.945446, -10.903252, -5.360822, 0.306403, 0.630491, 0.113471, 0.082722, 0.340058, 0.995490, 0.629132, -3.817011, -22.413086, -59.645992, -130.828033, -154.449173, -156.748459, -144.707687, -115.035309, -116.814346, -145.473770, -170.089432, -176.423706, -162.183594, -188.393845, -202.369186, -177.707428, -109.612717, -74.140335, -41.225075, -21.325069, -10.159077, 0.079123, 0.367921, 0.664335, 0.385526, 0.998412, 0.777806, 0.468248, -2.204142, -24.050051, -68.153648, -122.043060, -147.111893, -160.113251, -159.579269, -135.547928, -134.418823, -162.019440, -195.976257, -199.849380, -201.755234, -227.882614, -209.754898, -146.983917, -87.127419, -61.636139, -37.687252, -16.516838, -2.328344, 0.099150, 0.035931, 0.825162, 0.178274, 0.403852, 0.489496, 0.563800, -4.429952, -32.598690, -77.430229, -134.398880, -170.605499, -187.575439, -198.949005, -198.855530, -200.955231, -213.608444, -229.491837, -243.618912, -236.585327, -214.460526, -166.544891, -94.518021, -69.243927, -48.909988, -28.097769, -10.631536, -1.770805, 0.353999, 0.294202, 0.124104, 0.453149, 0.330134, 0.949265, 0.631423, -4.583904, -34.994644, -69.605789, -135.719025, -185.720840, -221.833679, -250.011063, -253.207642, -270.276825, -265.320404, -265.255463, -260.826263, -218.640350, -176.338562, -121.250992, -82.320068, -56.979713, -41.232285, -15.753642, -4.573402, -4.236747, 0.082330, 0.972397, 0.977841, 0.436329, 0.266600, 0.101945, 0.889479, -4.338023, -28.878344, -49.897747, -103.612274, -167.395432, -219.995209, -265.910919, -287.756958, -273.709839, -263.158325, -256.879578, -227.594879, -176.826553, -128.092773, -82.847885, -55.500885, -36.738972, -25.226952, -10.029642, -1.710593, 0.881924, 0.893055, 0.221128, 0.335087, 0.975385, 0.193525, 0.312929, 0.411714, -2.375356, -13.844805, -37.606022, -72.109406, -114.181717, -180.179276, -238.017044, -244.027023, -219.607483, -208.620285, -191.404068, -137.457199, -101.284973, -73.062218, -44.490921, -30.641256, -18.840294, -14.121725, -6.510257, -6.532578, 0.909000, 0.583020, 0.174755, 0.790924, 0.476075, 0.395883, 0.126011, 0.451459, -2.218678, -4.784926, -12.336491, -48.444778, -78.773712, -125.493141, -148.217697, -136.521667, -108.172943, -100.484085, -88.434006, -60.544468, -51.873428, -38.667179, -26.735765, -12.002499, -4.045474, -2.294701, -0.361980, -2.774335, 0.450784, 0.488408, 0.143543, 0.359784, 0.071428, 0.318298, 0.150708, 0.547503, 0.714181, 0.276719, -0.145420, -11.423995, -27.856230, -39.769100, -36.070736, -19.114737, -23.328341, -26.172001, -20.673368, -14.343680, -9.411667, -3.882047, -1.804278, 0.018829, 0.543393, 0.543937, 0.849012, 0.116194, 0.331937, 0.192042, 0.439449, 0.782721, 0.680450, 0.582992, 0.142505, 0.751878, 0.901289, 0.112478, -6.493889, -14.856479, -19.763350, -16.004854, -10.060763, -5.037768, -14.135623, -17.043089, -12.906396, -7.244124, -2.132421, -3.681089, -0.537642, 0.685175, 0.909750, 0.737588, 0.987172, 0.503114, 0.281524, 0.836184, 0.619308, 0.613461, 0.028226, 0.058757, 0.396182, 0.708676, 0.641749, -2.919037, -5.809767, -3.345039, 0.174389, 0.759935, 0.158508, 0.401830, 0.058279, 0.077567, 0.687419, 0.218758, 0.349748, 0.542479, 0.405739, 0.081442, 0.286909, 0.605683, 0.766617, 0.196659, 0.343271, 0.753789, 0.699773, 0.624795],
            [0.589973, 0.319081, 0.238256, 0.618198, 0.377838, 0.634438, 0.326874, 0.019587, 0.173124, 0.787428, 0.562626, 0.005022, 0.547364, 0.721134, 0.406852, 0.605642, 0.798701, 0.094271, 0.824400, 0.148449, 0.636750, 0.230139, 0.229891, 0.923659, 0.835822, 0.996508, 0.120318, 0.179092, 0.750297, 0.820091, 0.803887, 0.340269, 0.139171, 0.042143, 0.958467, 0.517009, 0.676581, 0.285341, 0.536597, 0.849705, 0.072770, 0.099222, 0.854727, 0.620134, 0.820356, 0.261579, 0.225776, 0.619058, 0.355850, 0.050176, 0.767507, 0.992600, 0.280315, 0.997398, 0.916258, 0.116136, 0.993906, 0.036576, 0.295228, 0.744202, 0.856667, 0.099116, 0.084471, 0.995838, 0.141259, 0.042939, 0.512847, 0.817840, 0.328280, 0.049444, 0.577209, -3.610403, -12.975967, -11.444622, -12.472351, -6.025829, -1.057096, 0.246960, 0.588080, 0.139700, 0.297136, 0.355587, 0.132300, 0.577451, 0.352985, 0.048559, 0.693587, 0.346891, 0.085135, 0.988816, 0.091093, 0.941801, 0.087931, 0.175564, 0.715458, -1.937078, -4.114034, -6.371601, -12.134637, -20.537357, -30.032764, -28.402327, -17.864784, -8.474117, -0.990452, 0.969017, 0.617619, 0.020696, 0.215977, 0.205699, 0.160397, 0.513113, 0.561286, 0.292697, 0.090564, 0.914270, 0.341256, 0.784151, 0.261161, 0.426390, 0.772967, -2.869376, -4.335350, -9.748674, -24.320759, -39.420673, -56.426250, -82.374214, -90.083733, -68.757431, -40.938019, -18.358002, -8.563639, -2.004317, -1.969207, -2.800719, 0.209955, 0.522463, 0.109234, 0.425932, 0.728161, 0.269631, 0.939045, -0.317948, -2.496372, -4.778717, -8.777653, -10.274231, -13.115323, -25.156790, -37.054405, -63.692516, -94.182304, -132.742798, -168.116776, -197.594696, -205.607697, -172.291275, -127.915062, -81.541870, -49.466354, -30.512465, -13.262161, -4.593414, 0.625314, 0.921405, 0.615062, 0.835268, 0.443867, 0.724296, 0.261200, -6.504655, -14.561133, -18.049482, -19.245279, -26.013130, -38.126774, -61.264870, -88.797264, -112.533470, -140.654587, -188.850189, -237.171768, -248.527878, -243.377014, -225.875992, -206.249222, -151.643829, -104.890839, -75.401291, -38.657368, -20.014280, -7.297975, -0.734782, 0.817037, 0.393114, 0.190252, 0.432099, 0.228383, -12.729253, -23.552389, -29.320341, -35.234737, -45.219814, -72.539497, -102.748528, -121.825523, -146.834534, -193.782333, -258.663086, -279.169128, -275.749847, -274.066925, -261.679565, -252.270950, -227.752182, -155.872253, -104.538902, -48.014633, -21.314175, -9.275593, -5.827178, 0.577805, 0.453473, 0.457315, 0.394842, 0.846587, -11.667835, -26.666031, -32.158333, -39.683643, -57.193378, -77.272751, -117.965469, -148.275635, -186.910019, -237.606018, -277.792572, -273.864471, -255.768997, -250.761520, -262.750916, -251.230484, -246.473892, -210.478058, -133.814636, -48.269867, -17.901482, -6.806919, -6.747828, 0.689907, 0.349179, 0.531735, -0.584952, 0.802652, -5.887231, -16.320078, -27.364729, -37.755566, -46.138020, -56.650993, -98.223473, -137.377151, -193.750153, -237.512451, -251.082031, -225.816635, -201.643982, -215.246536, -229.823959, -238.861755, -254.867737, -221.909103, -137.541946, -43.550331, -11.565370, -2.655186, -1.359555, 0.988194, 0.025809, 0.166614, 0.579717, 0.374988, -3.845367, -9.054407, -17.438143, -26.576841, -36.928490, -53.458183, -98.743759, -155.422058, -214.792709, -221.493896, -200.527496, -162.272171, -159.355789, -176.650131, -201.681503, -237.398651, -246.056259, -210.770142, -121.011513, -35.092484, -7.146326, -0.342813, 0.493549, 0.540355, 0.623270, 0.316895, 0.528549, 0.649079, -1.135546, -4.623638, -18.269747, -27.276932, -54.053528, -70.694862, -123.934982, -175.599182, -226.856339, -217.871536, -184.904282, -150.195770, -153.284363, -169.055771, -203.688644, -223.204758, -226.448044, -191.485107, -104.579559, -38.650173, -4.347013, -0.417219, 0.307774, 0.857493, 0.814989, 0.801322, 0.397848, 0.438259, -2.027031, -4.923639, -19.121202, -32.548374, -66.743774, -97.226791, -142.662292, -201.901184, -221.884598, -196.191010, -181.037582, -166.117538, -192.525406, -205.733353, -208.635071, -209.230988, -196.464600, -161.671616, -87.799110, -38.387928, -7.906964, -2.636845, 0.171482, 0.046119, 0.813858, 0.479256, 0.903612, 0.628847, -1.864670, -7.827871, -17.073381, -38.711048, -69.395813, -102.908913, -146.665192, -186.686676, -196.551559, -171.614532, -180.912338, -204.707581, -233.092667, -230.035370, -207.728180, -210.223450, -159.645905, -146.545227, -94.331581, -41.941780, -10.480839, -2.843275, 0.873216, 0.326305, 0.790344, 0.044699, 0.372424, 0.604201, -1.621294, -8.366651, -13.483416, -38.563210, -72.923271, -110.929359, -146.554214, -161.917755, -172.385071, -172.374939, -198.863968, -219.678680, -238.890686, -229.935303, -201.183670, -182.929749, -155.279846, -146.194351, -92.743301, -39.146343, -15.682497, -7.453465, -0.629053, 0.244977, 0.803242, 0.908659, 0.571282, 0.593586, -1.070462, -7.685488, -19.125414, -51.055054, -87.764252, -136.152115, -167.372406, -179.120132, -149.245316, -159.456909, -196.290665, -210.969116, -227.478485, -206.932434, -191.207840, -170.843735, -168.150146, -150.721558, -84.318726, -43.349712, -22.334652, -9.337728, -2.535954, 0.487570, 0.082598, 0.225623, 0.732547, 0.885841, 0.134282, -4.854150, -22.590517, -54.634212, -98.753670, -146.948547, -166.995392, -170.558456, -146.112045, -149.327225, -170.728699, -187.142334, -193.493683, -184.899597, -168.257462, -172.801666, -178.093460, -142.336609, -86.346794, -37.034298, -13.145806, -4.107421, 0.304447, 0.561603, 0.609728, 0.494627, 0.049173, 0.692326, 0.720250, -1.238983, -20.008566, -49.527687, -108.797401, -148.217911, -150.236343, -149.487595, -134.252609, -134.658279, -153.869690, -176.718826, -171.208832, -158.539780, -156.089920, -164.450195, -176.702332, -132.764343, -77.996651, -33.200424, -9.885715, -4.944700, 0.785448, 0.773303, 0.204722, 0.089895, 0.334906, 0.814450, 0.584522, -3.405525, -20.324524, -55.570057, -120.834808, -142.758652, -144.721954, -133.774170, -106.766022, -108.482948, -133.810577, -156.080704, -162.149078, -149.321625, -172.925476, -185.636948, -163.722321, -101.165260, -68.489136, -37.954102, -20.328848, -9.226523, 0.949625, 0.745829, 0.760141, 0.735073, 0.519132, 0.964863, 0.824967, -1.487412, -22.093710, -62.490177, -112.805763, -136.172897, -146.914993, -146.774170, -125.085693, -123.627716, -149.575531, -180.653992, -183.722977, -185.726486, -210.047348, -193.181183, -135.048340, -80.702080, -56.896221, -35.328625, -14.885231, -2.506445, 0.455836, 0.621855, 0.549846, 0.405461, 0.367684, 0.309987, 0.140534, -3.566103, -30.024479, -70.438408, -123.797089, -157.204956, -172.625000, -182.743759, -183.006989, -185.421295, -197.033951, -211.363327, -224.295486, -218.267776, -197.383423, -152.767914, -87.169167, -63.676552, -45.285965, -25.556566, -9.166522, -2.044478, 0.976515, 0.240110, 0.262218, 0.432351, 0.861965, 0.812064, 0.837813, -4.671157, -32.544312, -63.368279, -125.086136, -171.402405, -203.733353, -230.389557, -233.643036, -249.158554, -243.951706, -244.371750, -240.467911, -201.915817, -162.253052, -111.694054, -75.673569, -52.075573, -38.252243, -14.389306, -4.663718, -3.485035, 0.437534, 0.070114, 0.897932, 0.414050, 0.310224, 0.160150, 0.846401, -4.375796, -25.694838, -45.787189, -95.386093, -154.625839, -202.752136, -245.006317, -264.926880, -252.523834, -242.434921, -236.622223, -209.051468, -163.251205, -117.936249, -76.808952, -51.020752, -33.614143, -22.747246, -8.947719, -0.937922, 0.013031, 0.223610, 0.306834, 0.843306, 0.661144, 0.376948, 0.741239, 0.075194, -1.925633, -12.239251, -34.015491, -65.643845, -104.791351, -166.234451, -219.506134, -224.825943, -202.582535, -192.214874, -176.022659, -126.206253, -93.337639, -66.982506, -40.895737, -28.574678, -17.940744, -13.470860, -5.330455, -6.399625, 0.837632, 0.486538, 0.334584, 0.850663, 0.710148, 0.641419, 0.693970, 0.371292, -2.566126, -4.372708, -11.714611, -43.989620, -73.076401, -115.511429, -136.207062, -125.931252, -99.614838, -92.213112, -81.543930, -56.005215, -47.489834, -35.359795, -24.500061, -10.783852, -4.158434, -1.917738, -0.521391, -2.679088, 0.050447, 0.925858, 0.544183, 0.888080, 0.412397, 0.878767, 0.738743, 0.122545, 0.520186, 0.432712, -0.562922, -10.287171, -25.496929, -36.547955, -33.348377, -17.938736, -21.221798, -23.746689, -19.469349, -12.958078, -8.925412, -3.139491, -1.626167, -0.019238, 0.184037, 0.641597, 0.001397, 0.268289, 0.558669, 0.129139, 0.441496, 0.609117, 0.054998, 0.985679, 0.497196, 0.467394, 0.864447, 0.069170, -5.679835, -13.895769, -18.102617, -14.968024, -9.208254, -4.368350, -13.155798, -15.801063, -11.947965, -6.517606, -1.667972, -3.930699, -0.066284, 0.611356, 0.748606, 0.139357, 0.852040, 0.978511, 0.780954, 0.853437, 0.246800, 0.339623, 0.982576, 0.688296, 0.948740, 0.037574, 0.673976, -2.742067, -5.278180, -3.049307, 0.075105, 0.094908, 0.923055, 0.350527, 0.178685, 0.846241, 0.887099, 0.202785, 0.013519, 0.628191, 0.535291, 0.989788, 0.784003, 0.150092, 0.601144, 0.532608, 0.289449, 0.453184, 0.511119, 0.070403],
            [0.306621, 0.757918, 0.410026, 0.289197, 0.446215, 0.358766, 0.326771, 0.120190, 0.804702, 0.831739, 0.658612, 0.486577, 0.926647, 0.581668, 0.837104, 0.105332, 0.427909, 0.724203, 0.308117, 0.441428, 0.352394, 0.843408, 0.431216, 0.136396, 0.993500, 0.032360, 0.669004, 0.282949, 0.485544, 0.180123, 0.353351, 0.792165, 0.938041, 0.763377, 0.081361, 0.384256, 0.122143, 0.408132, 0.504446, 0.926844, 0.239871, 0.163059, 0.413422, 0.166518, 0.744726, 0.250525, 0.271850, 0.172635, 0.974728, 0.579967, 0.614064, 0.327122, 0.423375, 0.045280, 0.463518, 0.416875, 0.077640, 0.132522, 0.699824, 0.563184, 0.312645, 0.053175, 0.355348, 0.250687, 0.816552, 0.436710, 0.634943, 0.938695, 0.844842, 0.139389, 0.766939, -4.294698, -14.029856, -12.790866, -13.408528, -7.605665, -1.484799, 0.523081, 0.219810, 0.504214, 0.103048, 0.833873, 0.831336, 0.526423, 0.879153, 0.294854, 0.943298, 0.956793, 0.427377, 0.643121, 0.519976, 0.740022, 0.696296, 0.875325, 0.748025, -1.853325, -4.420313, -6.825772, -12.851941, -22.871328, -32.590363, -31.502792, -20.326752, -9.913043, -0.746814, 0.492820, 0.114663, 0.125528, 0.015901, 0.334473, 0.629743, 0.118948, 0.168346, 0.461079, 0.645371, 0.047499, 0.755933, 0.588669, 0.004291, 0.183310, 0.231790, -2.994657, -4.214525, -10.664175, -26.754280, -42.497593, -61.318352, -90.133461, -98.763336, -74.446182, -44.252079, -20.062286, -10.076187, -2.339795, -2.772645, -2.355907, 0.602911, 0.486887, 0.931130, 0.618812, 0.821360, 0.560872, 0.737760, 0.325099, -3.323401, -4.876881, -9.788233, -11.450919, -14.264359, -27.967342, -39.902328, -70.054916, -103.264732, -144.970230, -184.115936, -215.416626, -223.995529, -188.409653, -139.335449, -89.673546, -54.349102, -33.228539, -13.882320, -4.927661, 0.655577, 0.015220, 0.480247, 0.258488, 0.502107, 0.411377, 0.877300, -6.982193, -16.049080, -19.357090, -21.244625, -28.069084, -40.944511, -67.361252, -96.821075, -122.118988, -153.529556, -206.586090, -259.804993, -271.789398, -266.000946, -246.752930, -224.933685, -165.940002, -114.467613, -82.263504, -41.797947, -21.854839, -8.667178, -0.699319, 0.017596, 0.801044, 0.412845, 0.497843, 0.059532, -13.718855, -25.043585, -31.690681, -39.176601, -48.720898, -79.497719, -112.056992, -133.076584, -160.982925, -211.954468, -282.308411, -305.727295, -301.208435, -300.250671, -286.007690, -275.550598, -248.501572, -170.164001, -114.458466, -53.102440, -22.739256, -10.116074, -6.409371, 0.219720, 0.919933, 0.567454, 0.237317, 0.720977, -12.503739, -29.354342, -34.476490, -42.797592, -62.929974, -84.347099, -128.885864, -161.686386, -204.335098, -259.441071, -304.196106, -298.744019, -279.315247, -274.048462, -287.027710, -274.138153, -270.076630, -230.916672, -146.586685, -52.786625, -19.980350, -7.865532, -6.912698, 0.908715, 0.081528, 0.014151, -0.801984, 0.001461, -6.930616, -18.210855, -29.910675, -41.409908, -50.865227, -62.215668, -107.907188, -149.933121, -211.926880, -259.103851, -274.920624, -246.979630, -220.544495, -235.096588, -251.719604, -260.959106, -278.404572, -242.949585, -149.680206, -47.918129, -12.598383, -2.422358, -1.805343, 0.713210, 0.184055, 0.425660, 0.514569, 0.265583, -4.521016, -10.185928, -19.002235, -29.785469, -40.921574, -58.360958, -107.737297, -169.827759, -234.959183, -242.428497, -218.942596, -177.626923, -173.836716, -193.042908, -220.665756, -259.252502, -268.779510, -230.089249, -131.881104, -37.841114, -8.696210, -0.144995, 0.780249, 0.840565, 0.392145, 0.361586, 0.553775, 0.576201, -0.985796, -5.111949, -19.174715, -29.799202, -58.353401, -77.425034, -136.235916, -192.807465, -247.995239, -237.603058, -202.802734, -164.210236, -167.135620, -184.963303, -222.723083, -244.179962, -247.764008, -209.781952, -114.331230, -42.185646, -5.723591, -0.880795, 0.989116, 0.176071, 0.696865, 0.769364, 0.016637, 0.089010, -2.218331, -5.831423, -20.352262, -35.338284, -72.398857, -105.967529, -156.752686, -220.431763, -242.304825, -214.778793, -197.190857, -181.180649, -211.045792, -224.771805, -228.653732, -228.890030, -214.963516, -176.599670, -96.533279, -42.393127, -8.695499, -3.156525, 0.011108, 0.130791, 0.194073, 0.000223, 0.306862, 0.890937, -1.579695, -8.570092, -17.773014, -41.884010, -75.266563, -112.103195, -159.600128, -203.869568, -214.971344, -187.442184, -198.054108, -223.507980, -254.770584, -252.045563, -227.511826, -229.546265, -175.234161, -160.443024, -103.149178, -46.729359, -11.277888, -3.408401, 0.845161, 0.509322, 0.294776, 0.856269, 0.640113, 0.488849, -1.492790, -8.507821, -14.621123, -42.444397, -80.151375, -121.334496, -159.977249, -177.727859, -188.901031, -188.226273, -216.629944, -240.621872, -261.744476, -251.988403, -219.271057, -199.797302, -170.230804, -159.732300, -101.981796, -42.805660, -17.030334, -7.513757, -0.387362, 0.589399, 0.213759, 0.183518, 0.098722, 0.508535, -2.176517, -8.701186, -20.144093, -55.501263, -95.602448, -149.059464, -182.818207, -195.748718, -163.198837, -174.723343, -214.983902, -229.933746, -248.872787, -226.014053, -209.075821, -186.826141, -184.473373, -164.231735, -91.960884, -47.333633, -24.658070, -10.468234, -2.649268, 0.425072, 0.552373, 0.666395, 0.014471, 0.766132, 0.849912, -5.528623, -24.971819, -59.007744, -107.503311, -161.225693, -182.433456, -186.437881, -159.165085, -163.776932, -186.307968, -204.965469, -211.383530, -202.367554, -183.809387, -188.200928, -194.905273, -156.647919, -94.758255, -40.176670, -13.683825, -4.541358, 0.766364, 0.081583, 0.447069, 0.094402, 0.506655, 0.999442, 0.760797, -1.689768, -21.763767, -54.536598, -118.505859, -162.144501, -164.808929, -163.293488, -147.215561, -147.395798, -168.945175, -193.005615, -186.839111, -172.795151, -171.027023, -179.593033, -194.101837, -145.495956, -85.388000, -36.267693, -11.015799, -5.692133, 0.254512, 0.352921, 0.985012, 0.020876, 0.434504, 0.432081, 0.115278, -3.205665, -22.366610, -60.273663, -131.920975, -156.036713, -157.917007, -146.400894, -116.589729, -117.665817, -146.243683, -170.913803, -177.539169, -163.011139, -189.338028, -203.167603, -179.375259, -110.220505, -74.794685, -41.661617, -22.020031, -9.951132, 0.931501, 0.836645, 0.682968, 0.186013, 0.189566, 0.667980, 0.206888, -1.937759, -24.920244, -68.485603, -123.103851, -148.722610, -161.215286, -160.863403, -136.385971, -135.359894, -164.023331, -196.976868, -201.139450, -202.560272, -229.572083, -210.919785, -148.026947, -88.349045, -62.011257, -38.270176, -15.959339, -2.319538, 0.698164, 0.219892, 0.158410, 0.629665, 0.056537, 0.841378, 0.815678, -4.621078, -32.611572, -78.048462, -135.327362, -171.361877, -188.793564, -200.401749, -200.260300, -202.211853, -215.300354, -230.888092, -245.960022, -238.062424, -215.229034, -167.147018, -95.305061, -69.962944, -49.266567, -28.336494, -10.441636, -1.650412, 0.047907, 0.263682, 0.294515, 0.746072, 0.483573, 0.452926, 0.375737, -4.816085, -35.410877, -70.153877, -136.122833, -187.044220, -223.543060, -252.136810, -255.496994, -272.155518, -267.479126, -267.411865, -263.203705, -220.432434, -177.518616, -122.189659, -82.892570, -57.498226, -41.970306, -15.896283, -4.866213, -4.644704, 0.044085, 0.988924, 0.736008, 0.091992, 0.252605, 0.030524, 0.838064, -4.233988, -28.663502, -50.591198, -104.462296, -168.387329, -221.986130, -268.352356, -289.582977, -276.124512, -264.737000, -258.709503, -229.379684, -177.910614, -129.201523, -84.082413, -55.919678, -36.079945, -25.069202, -10.042728, -1.849119, 0.839185, 0.942896, 0.842607, 0.915094, 0.986981, 0.831531, 0.651102, 0.078974, -2.770900, -13.680724, -37.275814, -71.887306, -115.356400, -182.274811, -240.146973, -245.913330, -221.255447, -210.844467, -192.418732, -138.791565, -101.359955, -73.198311, -45.293804, -30.998693, -19.732603, -14.290189, -6.653143, -7.369689, 0.222049, 0.561121, 0.271470, 0.061234, 0.504017, 0.114078, 0.976328, 0.490998, -1.881921, -4.632607, -12.725560, -48.836155, -79.939308, -126.157562, -148.618256, -137.393600, -109.334190, -100.754585, -88.926964, -61.367897, -52.514606, -38.458252, -26.647036, -11.667129, -4.143461, -2.464063, -0.037997, -2.594123, 0.255087, 0.726461, 0.566928, 0.477136, 0.287582, 0.838399, 0.538370, 0.791599, 0.952476, 0.514697, -0.872078, -10.934422, -28.670916, -40.108932, -35.781086, -19.376444, -23.175394, -26.032944, -20.782469, -13.504353, -9.718098, -3.736998, -2.248644, 0.544987, 0.233124, 0.420488, 0.814096, 0.743423, 0.062810, 0.486525, 0.270687, 0.317897, 0.212986, 0.837615, 0.795033, 0.500568, 0.676014, 0.151057, -6.561670, -14.982388, -19.657997, -15.864635, -10.540767, -4.371520, -13.968117, -16.979582, -13.416708, -6.717138, -2.654407, -4.094147, -0.019142, 0.956857, 0.709002, 0.835667, 0.787188, 0.992481, 0.256155, 0.601284, 0.735904, 0.318965, 0.087810, 0.006591, 0.636862, 0.300796, 0.844207, -3.057437, -5.525132, -3.401667, 0.102103, 0.093531, 0.148711, 0.613399, 0.668294, 0.675287, 0.603626, 0.095627, 0.129693, 0.045038, 0.862537, 0.361992, 0.411765, 0.586874, 0.318849, 0.120767, 0.422541, 0.106038, 0.113248, 0.678695],
            [0.707322, 0.849153, 0.997660, 0.795132, 0.855744, 0.634522, 0.095928, 0.699951, 0.066418, 0.897292, 0.220172, 0.831716, 0.990822, 0.368883, 0.445115, 0.659117, 0.044169, 0.048741, 0.754743, 0.173862, 0.093779, 0.617280, 0.535854, 0.505544, 0.204154, 0.854704, 0.626311, 0.626694, 0.960741, 0.739560, 0.305390, 0.668063, 0.588712, 0.303049, 0.463195, 0.444456, 0.937572, 0.559123, 0.144407, 0.003989, 0.456414, 0.364578, 0.835705, 0.447237, 0.733461, 0.280820, 0.106354, 0.777630, 0.329562, 0.861097, 0.951493, 0.423341, 0.478377, 0.487347, 0.928886, 0.682531, 0.342051, 0.555197, 0.309226, 0.302792, 0.294756, 0.614615, 0.970855, 0.883469, 0.917665, 0.434051, 0.327925, 0.855236, 0.993173, 0.472332, 0.757253, -4.079407, -13.984651, -12.820355, -13.217133, -7.333438, -1.104936, 0.003178, 0.348002, 0.305313, 0.864275, 0.299494, 0.728655, 0.342652, 0.786841, 0.657540, 0.025183, 0.128892, 0.212737, 0.334409, 0.431684, 0.507493, 0.949024, 0.402540, 0.139990, -1.580289, -4.057365, -6.986788, -13.034568, -22.980358, -34.293564, -32.305397, -20.971285, -10.279346, -1.111044, 0.176175, 0.598500, 0.251832, 0.179354, 0.946501, 0.557146, 0.043629, 0.245996, 0.285800, 0.386281, 0.032837, 0.943340, 0.411464, 0.161729, 0.156077, 0.745873, -3.045682, -4.649435, -11.289227, -27.069254, -44.813450, -63.268341, -93.050751, -101.838234, -77.551064, -45.933788, -20.073696, -9.768066, -1.591638, -2.255038, -3.124247, 0.117833, 0.591266, 0.392574, 0.297186, 0.537768, 0.949719, 0.340815, 0.097337, -3.220266, -4.703825, -9.326802, -12.444939, -15.592751, -27.958361, -41.884785, -71.707047, -106.713722, -149.706940, -189.790375, -222.989166, -232.181335, -195.088364, -144.211212, -92.148773, -56.205147, -34.828289, -14.206987, -5.494688, 0.004202, 0.783865, 0.429827, 0.122035, 0.375131, 0.822401, 0.419221, -6.632408, -16.805096, -19.857677, -21.560135, -29.998817, -42.829117, -69.430710, -100.623337, -126.517578, -158.507843, -213.652054, -268.061768, -281.696198, -274.906006, -255.122208, -232.668945, -171.272293, -118.925720, -85.564812, -43.552715, -22.280594, -9.015434, -0.942633, 0.943879, 0.098016, 0.974408, 0.373706, 0.220051, -14.753185, -26.590761, -33.036610, -40.436798, -50.260227, -82.285751, -115.366028, -137.398376, -165.975479, -219.419525, -292.142365, -315.854248, -310.516296, -309.903442, -296.176971, -284.903809, -257.543884, -176.698013, -117.752930, -54.508911, -24.059408, -10.564825, -6.620098, 0.996866, 0.783406, 0.366724, 0.940745, 0.881422, -13.574161, -30.743134, -36.303402, -44.436508, -65.168831, -87.135887, -132.343201, -167.106430, -211.229706, -267.823700, -314.216827, -309.456818, -288.798615, -282.588715, -296.363831, -283.790863, -279.166443, -237.999313, -151.173965, -54.469795, -20.003870, -8.408795, -7.732421, 0.014644, 0.723734, 0.457491, -0.951412, 0.507140, -6.940490, -18.233999, -31.251030, -43.189144, -52.383972, -64.300774, -111.105247, -154.907608, -218.941757, -267.476471, -284.032196, -255.304092, -227.439590, -242.906387, -259.995239, -270.411224, -288.043701, -250.686874, -154.912399, -49.029121, -13.226725, -2.579060, -2.333140, 0.169372, 0.864410, 0.414439, 0.072909, 0.588145, -4.257101, -11.102991, -19.807789, -30.094706, -42.245628, -60.832691, -111.042938, -175.267212, -242.278671, -249.766006, -226.977066, -184.046234, -179.754715, -199.272736, -227.639679, -268.549591, -278.451752, -237.226456, -136.647461, -39.244743, -8.239805, 0.126189, 0.114786, 0.405538, 0.638615, 0.247914, 0.574910, 0.503025, -1.168256, -4.702096, -20.583717, -30.480986, -60.279152, -79.906349, -140.765442, -199.133072, -255.630203, -246.230148, -209.293411, -169.649078, -172.812195, -190.682861, -229.633041, -252.487839, -256.287628, -216.794586, -117.917847, -43.619759, -5.531363, -0.158903, 0.801010, 0.305873, 0.746320, 0.915795, 0.711411, 0.384935, -2.261848, -6.327219, -20.821404, -36.625492, -75.510056, -108.999802, -161.710754, -227.409225, -250.807419, -221.721359, -204.391342, -187.134186, -217.674286, -232.697479, -236.134995, -236.105438, -221.951736, -182.714584, -99.482651, -43.966389, -8.341991, -2.859088, 0.798157, 0.150377, 0.350263, 0.599167, 0.456250, 0.096583, -1.910595, -9.022161, -18.889696, -43.513836, -78.211937, -116.083359, -165.196335, -210.778839, -221.914566, -193.800690, -204.484512, -231.267502, -263.225861, -259.908447, -235.237396, -237.596359, -180.796204, -165.704269, -106.605690, -47.912624, -11.892362, -3.351282, 0.029981, 0.912304, 0.871205, 0.828139, 0.062681, 0.221467, -1.998252, -9.251133, -15.179861, -43.542233, -82.372978, -124.887772, -165.175659, -183.644867, -195.010254, -194.727859, -224.069168, -248.330643, -269.855774, -260.396759, -227.478149, -206.633392, -175.254364, -165.042801, -105.016457, -43.401066, -17.579521, -8.508509, -0.244552, 0.371140, 0.674768, 0.535641, 0.283445, 0.545972, -1.924482, -9.408683, -21.071606, -57.452026, -98.575829, -154.260056, -188.667496, -202.672180, -168.491791, -180.256653, -221.638824, -238.382950, -257.158539, -234.190735, -216.373047, -193.254654, -190.140396, -169.913101, -94.473335, -48.875801, -24.729347, -10.955597, -2.908427, 0.197609, 0.718343, 0.675024, 0.568749, 0.393111, 0.210665, -4.978446, -25.139315, -61.281483, -111.700111, -166.111984, -188.928833, -193.117065, -164.349335, -169.492447, -192.487015, -211.604675, -218.407211, -209.446411, -189.303894, -194.263580, -201.260254, -161.561813, -97.954010, -41.988583, -14.102470, -5.220677, 0.320308, 0.892062, 0.823676, 0.489673, 0.089671, 0.542019, 0.164697, -1.625555, -22.336735, -56.574478, -122.543213, -166.666031, -169.839905, -168.514435, -151.875656, -152.332489, -173.901810, -200.135834, -193.302948, -178.694824, -176.991241, -185.648285, -199.972504, -150.022659, -88.134071, -37.823425, -11.806917, -5.837534, 0.443846, 0.990448, 0.525585, 0.764155, 0.882510, 0.349261, 0.253827, -3.311106, -22.656076, -62.733906, -136.104141, -160.565475, -162.862534, -151.229935, -120.032585, -121.895546, -150.929092, -176.951065, -183.695953, -168.415359, -195.464600, -210.303284, -185.443863, -114.056679, -77.773178, -42.602268, -22.601585, -10.681076, 0.038220, 0.568827, 0.345583, 0.482066, 0.559275, 0.871168, 0.246221, -2.204726, -25.629572, -70.575798, -127.315971, -154.059540, -165.840866, -166.194977, -140.759995, -139.909470, -169.480240, -203.921951, -208.071960, -209.962677, -236.774048, -218.360428, -152.603622, -90.729904, -63.908817, -39.322525, -17.117016, -2.721601, 0.372560, 0.763033, 0.470270, 0.410780, 0.331861, 0.815854, 0.892846, -4.138211, -33.538818, -80.516357, -140.350632, -176.739334, -194.776642, -206.774628, -207.078079, -208.977264, -222.165161, -238.507935, -254.080963, -245.569427, -222.614258, -172.892288, -98.764481, -72.117516, -51.512421, -29.216902, -11.082233, -2.155934, 0.339741, 0.368438, 0.559007, 0.712301, 0.131471, 0.029277, 0.123080, -5.071465, -36.046333, -72.659897, -141.073624, -193.519928, -231.024857, -260.500885, -263.975525, -280.984192, -276.013306, -276.381470, -271.659912, -228.071365, -183.419220, -125.958817, -85.568214, -59.638187, -43.222771, -16.643040, -5.127385, -4.284821, 0.887691, 0.618488, 0.819653, 0.227432, 0.986926, 0.378660, 0.939733, -5.017611, -29.704679, -52.419079, -107.604042, -174.493271, -229.668869, -276.378204, -299.002594, -285.666870, -273.594543, -268.050415, -237.105988, -184.570724, -133.359955, -86.759315, -57.839741, -38.145893, -26.497118, -10.399061, -2.035544, 0.349830, 0.702694, 0.639866, 0.939561, 0.590385, 0.258355, 0.759214, 0.817817, -2.703936, -14.698358, -38.693939, -74.735107, -118.783195, -187.619431, -247.268326, -254.220947, -228.195160, -217.066544, -198.710678, -143.394669, -105.101151, -75.318481, -46.947121, -32.139103, -19.934818, -14.832340, -6.074313, -7.053315, 0.541905, 0.333202, 0.703844, 0.891735, 0.035897, 0.343711, 0.831296, 0.626282, -2.316103, -4.838142, -13.287448, -49.629730, -82.173042, -130.659576, -154.239822, -142.172745, -113.566795, -104.899895, -92.211555, -62.612797, -54.292934, -40.013794, -27.763084, -12.504747, -4.278037, -2.988429, -0.626761, -2.262240, 0.754952, 0.952918, 0.550766, 0.296857, 0.286120, 0.254611, 0.188593, 0.322017, 0.598321, 0.019889, -0.245144, -12.027697, -29.165501, -41.944515, -37.885456, -20.143951, -23.703701, -27.443373, -21.815512, -14.322028, -10.372806, -3.528264, -1.894583, 0.159296, 0.291347, 0.591131, 0.996452, 0.809315, 0.805763, 0.102727, 0.767930, 0.560715, 0.055645, 0.318696, 0.857573, 0.341765, 0.573307, -0.142237, -6.418535, -15.961066, -21.133587, -16.383278, -11.066499, -4.861080, -14.870067, -17.594685, -14.298751, -7.128897, -2.305708, -3.984241, -0.554150, 0.093698, 0.314254, 0.751770, 0.546926, 0.657471, 0.342901, 0.543378, 0.466786, 0.148664, 0.646106, 0.234716, 0.709380, 0.701751, 0.553412, -3.036789, -6.492443, -3.926828, -0.072397, 0.707297, 0.298347, 0.679172, 0.319379, 0.670362, 0.355624, 0.323859, 0.090110, 0.370858, 0.922388, 0.768617, 0.999067, 0.136980, 0.862315, 0.313321, 0.888750, 0.409241, 0.970792, 0.231651],
